tree
version=v2
num_class=1
num_tree_per_iteration=1
label_index=0
max_feature_idx=2
objective=binary sigmoid:1
feature_names=Column_0 Column_1 Column_2
feature_infos=[622.60000000000002:1501.9000000000001] [10.800000000000001:27.989999999999998] [0:340]
tree_sizes=2427 2440 2468 2466 2453 2457 2477 2474 2473 2480 2476 2451 2453 2484 2450 2493 2482 2472 2483 2482 2481 2465 2472 2476 2500 2480 2513 2455 2472 2493 2475 2472 2521 2485 2445 2453 2462 2485 2495 2459 2471 2494 2460 2501 2477 2509 2458 2456 2455 2476 2512 2464 2439 2454 2485 2479 2462 2468 2459 2463 2467 2504 2505 2444 2471 2481 2456 2483 2493 2466 2465 2474 2495 2489 2475 2454 2474 2452 2483 2468 2505 2471 2467 2441 2478 2472 2469 2445 2488 2452 2468 2481 2491 2478 2471 2481 2478 2485 2497 2460

Tree=0
num_leaves=31
num_cat=0
split_feature=2 2 0 1 0 0 2 2 2 1 1 1 2 1 1 2 2 1 0 1 1 1 0 2 2 2 1 2 2 2
split_gain=9290.15 1539.49 966.356 326.423 701.178 522.401 665.872 851.713 433.609 584.986 273.567 246.503 225.089 215.04 172.712 148.343 117.14 108.889 101.714 98.7155 117.616 96.3832 118.134 89.9079 65.452 61.136 52.9854 813.311 218.697 65.9787
threshold=183.00000000000003 306.50000000000006 1430.0000000000002 17.115000000000006 1216.7500000000002 1122.6000000000001 257.50000000000006 250.50000000000003 294.50000000000006 15.885000000000003 17.225000000000005 16.245000000000001 269.50000000000006 17.585000000000004 17.785000000000004 286.50000000000006 282.50000000000006 17.275000000000002 1379.7500000000002 15.055000000000001 15.475000000000003 14.565000000000003 1304.5500000000002 246.50000000000003 261.50000000000006 302.50000000000006 15.845000000000001 288.50000000000006 281.50000000000006 279.50000000000006
decision_type=2 2 2 2 2 2 2 2 2 2 2 2 2 2 2 2 2 2 2 2 2 2 2 2 2 2 2 2 2 2
left_child=-1 2 3 4 -2 6 7 13 11 18 15 21 19 17 -9 24 -13 -5 25 -4 -21 22 -6 -19 -8 -10 28 29 -23 -28
right_child=1 -3 12 5 8 -7 10 14 9 -11 -12 16 -14 -15 -16 -17 -18 23 -20 20 -22 26 -24 -25 -26 -27 27 -29 -30 -31
leaf_value=-1.1788428873460299 -2.1807441621382289 -1.2055667075742025 -2.0896432521717863 -2.1728407254969611 -2.1193370571692407 -2.169312056013359 -2.0023432172033098 -1.6709723152402265 -2.0305003713389453 -1.1788428873460299 -2.1876041778371302 -2.1692607433463684 -1.1955397535381773 -2.1611496043434344 -1.3163516335253398 -2.1744686098900257 -1.5576530390803787 -2.0057252438744535 -1.4237302581641949 -1.2565475338556396 -1.9978918640689463 -2.0083705011318664 -1.2400647300505714 -1.7608876919156324 -1.6815518211030374 -1.5285137966392748 -2.1465379501204853 -1.3841161246494917 -2.1604015816726996 -1.9067525906787002
leaf_count=1123 14677 189 61 125 29 2565 92 507 427 120 1444 2763 121 544 191 139 32 237 33 52 37 2483 33 420 213 26 785 187 1554 136
internal_value=0 -0.333542 -0.390447 -0.44485 -0.620401 0.186261 0.917155 2.1836 0.0997756 2.6919 -0.440518 -0.0965288 5.58418 0.687736 5.02532 1.7413 -0.857924 1.75526 1.14021 2.98261 5.11719 0.312171 4.25129 2.27258 2.98151 0.747773 0.264702 0.880361 0.095728 -0.346639
internal_count=31345 30222 30033 29762 23285 6477 3912 2024 8608 606 1888 8002 271 1326 698 444 2795 782 486 150 89 5207 62 657 305 453 5145 1108 4037 921
shrinkage=1


Tree=1
num_leaves=31
num_cat=0
split_feature=2 2 0 1 0 0 2 2 1 1 2 1 2 1 2 2 1 1 1 1 0 0 0 1 2 2 1 2 2 1
split_gain=3951.9 742.586 513.055 290.017 571.493 413.563 423.7 348.694 236.156 212.217 170.849 151.992 112.207 161.063 104.686 90.3338 70.2534 66.9091 135.637 68.5044 63.3857 55.6331 53.2476 48.002 48.7631 47.4474 46.6439 45.3231 44.3776 80.7425
threshold=218.50000000000003 302.50000000000006 1418.6000000000001 17.115000000000006 1216.7500000000002 1122.6000000000001 258.50000000000006 250.50000000000003 16.245000000000001 17.225000000000005 280.50000000000006 17.585000000000004 294.50000000000006 15.885000000000003 269.50000000000006 289.50000000000006 17.285000000000004 17.575000000000003 17.395000000000003 17.205000000000002 1089.1000000000001 1227.0000000000002 1440.0000000000002 14.565000000000003 263.50000000000006 308.50000000000006 15.125000000000002 246.50000000000003 248.50000000000003 17.505000000000006
decision_type=2 2 2 2 2 2 2 2 2 2 2 2 2 2 2 2 2 2 2 2 2 2 2 2 2 2 2 2 2 2
left_child=-1 2 3 4 -2 6 7 11 12 15 -10 16 23 26 22 -8 -5 18 19 -9 -19 25 -4 24 -6 -3 -14 -18 29 -29
right_child=1 21 14 5 8 -7 9 17 10 -11 -12 -13 13 -15 -16 -17 27 20 -20 -21 -22 -23 -24 -25 -26 -27 -28 28 -30 -31
leaf_value=0.42482780175568069 -0.10267832713366648 -0.015101217548571678 0.050445412278293071 -0.080784772111089032 -0.11441187574289412 -0.093271527359126638 0.21049786461779721 0.007201369679909162 -0.095226320631715572 -0.11044746694008192 0.28110946926923125 -0.081750038443210993 0.1285763049077355 0.42506107878662391 0.40939406261413364 -0.10316296294825252 0.060840300875437861 0.37225976368596075 -0.065379644975926479 0.48326682115807568 -0.087724563847502948 0.43244460152074898 0.31788123780242117 0.018327861676590607 0.41610904023669204 0.43386506349751913 -0.091159694970035385 0.18316760786230984 0.13048501977644045 0.54687242454302976
leaf_count=1126 14634 56 216 136 24 2514 300 32 2683 1430 99 544 328 95 165 133 236 473 100 94 23 200 84 5023 37 22 128 133 200 77
internal_value=0 -0.321309 -0.38383 -0.444499 -0.619631 0.140916 0.732277 1.59822 0.0250164 -0.432634 -0.768403 0.569794 0.378151 1.6121 2.54504 1.33108 1.35685 3.0055 1.73524 3.66251 3.52329 3.7298 1.39157 0.222247 2.60105 1.63024 0.679094 1.72226 2.25774 3.16526
internal_count=31345 30219 29941 29476 23051 6425 3911 2048 8417 1863 2782 1326 5635 551 465 433 782 722 226 126 496 278 300 5084 61 78 456 646 410 210
shrinkage=0.1


Tree=2
num_leaves=31
num_cat=0
split_feature=2 2 0 1 0 0 2 2 1 1 2 2 0 2 2 1 2 2 1 1 2 2 1 1 1 1 1 1 1 1
split_gain=2647.7 546.59 358.838 282.8 446.563 334.806 293.413 216.265 181.676 178.459 95.2864 91.1208 88.6247 73.3451 59.4436 58.4554 404.261 113.282 70.8982 57.4883 52.6675 49.4381 49.164 46.2593 48.4084 41.3999 94.6739 38.8236 37.0022 44.3954
threshold=218.50000000000003 298.50000000000006 1418.6000000000001 17.105000000000004 1216.7500000000002 1122.6000000000001 257.50000000000006 251.50000000000003 16.245000000000001 17.225000000000005 306.50000000000006 280.50000000000006 1373.8500000000001 246.50000000000003 286.50000000000006 15.845000000000001 288.50000000000006 281.50000000000006 15.075000000000001 17.505000000000006 272.50000000000006 279.50000000000006 17.415000000000003 17.745000000000001 17.255000000000006 15.055000000000001 15.465000000000002 16.005000000000006 15.705000000000002 15.125000000000002
decision_type=2 2 2 2 2 2 2 2 2 2 2 2 2 2 2 2 2 2 2 2 2 2 2 2 2 2 2 2 2 2
left_child=-1 2 3 4 -2 6 7 13 15 14 12 -10 -3 19 -8 17 21 28 -19 22 25 -17 -5 24 -15 -4 -27 -23 29 -6
right_child=1 10 20 5 8 -7 9 -9 11 -11 -12 -13 -14 23 -16 16 -18 18 -20 -21 -22 27 -24 -25 -26 26 -28 -29 -30 -31
leaf_value=0.3122966000271874 -0.10179826662211544 0.061832818964325978 -0.043904357654172485 -0.098322037047408273 4.6801018371557742e-05 -0.090391856406061233 0.15860946946633411 0.25373247088112877 -0.092795426487129809 -0.10842209811565232 0.30800117052419085 0.18278803213144926 0.34168388335484956 -0.099361482892071237 -0.093477731665596878 -0.066824160381509762 0.35461960346295673 0.10008437207055954 -0.081694701952470902 -0.10348921243580554 0.30409938527217467 0.029368127207315898 0.24926841643995343 -0.099622319342508994 0.14551304972699017 0.35522964692573034 -0.0066552868324019068 0.37903749935592868 -0.090753718765747671 0.090625752332734594
leaf_count=1126 14473 527 97 63 758 2509 328 522 2667 1420 189 87 70 101 138 770 226 216 1546 403 136 97 98 89 750 93 129 39 165 1513
internal_value=0 -0.304842 -0.393839 -0.450667 -0.63628 0.120637 0.620319 1.28603 -0.0550673 -0.382335 1.85385 -0.782528 1.16401 0.631816 1.06722 0.257922 0.85264 0.0817381 -0.549753 -0.331634 1.91706 -0.324482 1.17412 1.07063 1.25841 1.20254 1.83156 1.29641 0.498545 0.600047
internal_count=31345 30219 29433 28978 22557 6421 3912 2026 8084 1886 786 2754 597 1504 466 5330 1132 4198 1762 564 455 906 161 940 851 319 222 136 2436 2271
shrinkage=0.1


Tree=3
num_leaves=31
num_cat=0
split_feature=2 2 0 1 0 0 2 1 1 2 1 2 0 2 1 2 2 1 2 1 2 2 1 1 1 1 0 1 1 1
split_gain=1972.39 425.766 277.992 245.427 405.585 289.087 210.742 167.924 155.319 137.22 95.257 81.0239 74.2386 47.6988 44.7521 298.431 106.281 65.2172 39.4908 60.2295 38.4039 38.3881 37.4142 35.6355 32.6246 56.3577 30.8438 29.786 28.2796 56.1592
threshold=183.00000000000003 298.50000000000006 1418.6000000000001 17.125000000000004 1216.7500000000002 1122.6000000000001 258.50000000000006 17.225000000000005 16.245000000000001 250.50000000000003 17.585000000000004 280.50000000000006 1224.3500000000001 289.50000000000006 15.805000000000001 288.50000000000006 281.50000000000006 15.075000000000001 303.50000000000006 15.945000000000002 308.50000000000006 279.50000000000006 17.345000000000002 17.275000000000002 17.615000000000006 17.375000000000004 1288.2500000000002 17.205000000000002 15.085000000000003 14.565000000000003
decision_type=2 2 2 2 2 2 2 2 2 2 2 2 2 2 2 2 2 2 2 2 2 2 2 2 2 2 2 2 2 2
left_child=-1 2 3 4 -2 6 9 13 14 10 23 -10 20 -8 16 21 -6 -18 19 -14 -3 -16 28 -5 25 27 -13 -11 29 -4
right_child=1 12 22 5 8 -7 7 -9 11 24 -12 26 18 -15 15 -17 17 -19 -20 -21 -22 -23 -24 -25 -26 -27 -28 -29 -30 -31
leaf_value=0.2555377851336828 -0.098894705959030813 -0.041175015738396908 0.32096285693056009 -0.089046093375874255 0.045059536574365192 -0.091245584825871251 0.16058057489985866 -0.10807617072654951 -0.090776762924416568 -0.0083654591820281812 -0.078136086906490126 -0.099497731773175904 0.052265296773312847 -0.097803790343048827 -0.065852969545537335 0.27796268384442108 0.083773515608452073 -0.086850996604992764 0.26600653081074815 0.28685641468350431 0.25899466678435273 0.089433242528891746 -0.11269937597646391 0.11325894448596732 0.21344339248177954 -0.0055211658836085845 0.23820560817978867 0.28422805259662498 0.21524159501020934 -0.064981729275350494
leaf_count=1123 14625 244 28 118 2400 2417 257 1407 2706 30 544 23 255 111 804 234 216 1503 190 75 22 173 48 657 465 139 66 86 283 96
internal_value=0 -0.289014 -0.373349 -0.427537 -0.60495 0.112938 0.558643 -0.375719 -0.056834 1.0702 0.410196 -0.752968 1.54575 1.15117 0.224221 0.715107 0.0630161 -0.581105 1.9814 1.35142 0.136456 -0.318846 1.57677 0.944567 1.79993 1.07912 1.53943 2.23754 1.77133 0.652868
internal_count=31345 30222 29436 28981 22750 6231 3814 1775 8125 2039 1319 2795 786 368 5330 1211 4119 1719 520 330 266 977 455 775 720 255 89 116 407 124
shrinkage=0.1


Tree=4
num_leaves=31
num_cat=0
split_feature=2 2 0 1 0 0 2 1 0 1 2 2 1 1 2 2 2 1 1 1 1 1 1 1 0 2 2 2 1 0
split_gain=1547.97 347.391 221.445 255.214 339.073 233.484 149.673 142.751 131.647 124.986 108.058 46.0176 40.9531 39.8294 70.7628 37.7753 32.9811 32.6147 168.143 32.4189 53.811 31.8964 31.4226 32.9184 29.2268 35.6997 43.626 29.1024 30.5349 28.0353
threshold=218.50000000000003 294.50000000000006 1414.5500000000004 17.065000000000001 1216.7500000000002 1124.4000000000003 257.50000000000006 17.225000000000005 1218.7500000000002 16.245000000000001 251.50000000000003 246.50000000000003 17.495000000000001 15.885000000000003 301.50000000000006 272.50000000000006 280.50000000000006 16.825000000000003 15.885000000000003 15.685 15.085000000000003 17.415000000000003 17.745000000000001 17.255000000000006 1099.3000000000004 276.50000000000006 261.50000000000006 276.50000000000006 17.285000000000004 1378.3500000000001
decision_type=2 2 2 2 2 2 2 2 2 2 2 2 2 2 2 2 2 2 2 2 2 2 2 2 2 2 2 2 2 2
left_child=-1 2 3 4 -2 6 10 24 17 -6 11 12 21 14 29 19 -11 18 -3 20 -4 -5 23 -13 25 26 -8 -7 -29 -10
right_child=1 8 15 5 9 27 7 -9 13 16 -12 22 -14 -15 -16 -17 -18 -19 -20 -21 -22 -23 -24 -25 -26 -27 -28 28 -30 -31
leaf_value=0.22028630599776397 -0.10148591031487433 -0.012197501266720312 -0.034526146633198349 -0.098150328069178006 0.013800618566479822 -0.09689178327456538 -0.046593515626471002 -0.10619077699368931 0.013139623194917575 -0.089036790673134164 0.16910761129251811 -0.097484275063105294 -0.09918458136678189 0.23346041082588773 0.21467944792509411 0.20747926565946445 0.083970052969139189 -0.10904050875514648 1.0153145110872133 -0.043821993585908013 0.22218778706040193 0.17315187134975252 -0.10051060801288253 0.10310630599784919 0.21829992190652675 -0.079050369312617538 0.17239098854326551 0.15599520879544648 -0.10867937816160061 0.24748174171092938
leaf_count=1126 13963 329 116 64 5026 2312 107 1392 396 2576 525 119 412 180 185 159 71 343 20 169 111 92 89 758 91 157 188 130 107 32
internal_value=0 -0.274367 -0.376137 -0.432521 -0.63432 0.100298 0.480365 -0.279917 1.01297 -0.116747 0.904089 0.443847 -0.336727 1.5468 1.17711 1.22212 -0.789335 -0.256477 0.423586 0.693052 1.24763 0.823048 0.75702 0.889754 0.817983 0.508411 0.995907 -0.841883 0.380466 0.393074
internal_count=31345 30219 28734 28179 21636 6543 3994 1935 1485 7673 2059 1534 568 793 613 555 2647 692 349 396 227 156 966 877 543 452 295 2549 237 428
shrinkage=0.1


Tree=5
num_leaves=31
num_cat=0
split_feature=2 0 1 2 0 2 0 1 0 1 2 1 1 2 1 2 2 1 2 2 2 1 1 1 1 1 2 1 0 1
split_gain=1253.19 292.504 347.266 181.177 157.376 132.402 118.332 112.771 112.446 99.4414 80.5648 62.7064 58.795 56.7168 51.2385 47.1049 46.7557 40.1153 59.7134 35.0978 29.9142 41.5091 28.062 27.815 26.5963 24.4901 23.7354 23.6241 23.088 19.9207
threshold=183.00000000000003 1291.9500000000003 17.065000000000001 293.50000000000006 1124.4000000000003 257.50000000000006 1210.4500000000003 17.225000000000005 1423.5000000000002 16.245000000000001 250.50000000000003 17.585000000000004 16.245000000000001 279.50000000000006 14.685 263.50000000000006 295.50000000000006 15.885000000000003 301.50000000000006 288.50000000000006 290.50000000000006 15.745000000000003 17.355000000000004 15.215000000000002 16.795000000000005 17.805000000000003 304.50000000000006 15.125000000000002 1379.7500000000002 15.515000000000002
decision_type=2 2 2 2 2 2 2 2 2 2 2 2 2 2 2 2 2 2 2 2 2 2 2 2 2 2 2 2 2 2
left_child=-1 2 6 8 5 10 16 19 9 14 11 22 20 -11 15 -3 -2 18 27 -7 23 26 -4 -8 -15 -12 -22 28 -5 -25
right_child=1 3 4 17 -6 7 12 -9 -10 13 25 -13 -14 24 -16 -17 -18 -19 -20 -21 21 -23 -24 29 -26 -27 -28 -29 -30 -31
leaf_value=0.19664694331821839 -0.10062747908629935 -0.11551230713085819 -0.020035601017611766 0.02826787550921743 -0.088339344436586101 0.086541775175825258 -0.073175727502912069 -0.10531610039026512 0.13384111121066086 -0.080287578837858448 0.10941712467929143 -0.0747723743285965 -0.10001512111226021 -0.0032033274642375093 0.013189138438179003 0.33245052548956711 0.024753046922798439 0.21420840947787348 0.1942828280119489 -0.099636912783588327 -0.023433483295554794 0.26688771965596536 0.094839196957808583 0.075413156095106307 0.30149972174802087 0.20708149777484688 0.18657977899159112 -0.096061039007109106 0.25187111884297236 -0.017208122543326914
leaf_count=1123 13737 28 260 230 1758 445 483 1463 344 2722 568 549 935 45 3640 53 338 175 148 176 214 44 547 377 34 135 30 137 26 581
internal_value=0 -0.259474 -0.484095 0.2495 0.134344 0.391762 -0.800425 -0.313836 0.0407164 -0.0907411 0.783144 0.285561 -0.186845 -0.670286 0.19594 2.19373 -0.964641 1.35721 0.945821 0.577877 0.104711 0.885024 0.668849 -0.105327 1.48921 1.30818 0.283898 0.211067 0.640707 0.203429
internal_count=31345 30222 22640 7582 5901 4143 16739 2084 6866 6522 2059 1356 2664 2801 3721 81 14075 716 541 621 1729 288 807 1441 79 703 244 393 256 958
shrinkage=0.1


Tree=6
num_leaves=31
num_cat=0
split_feature=2 0 1 2 0 2 1 1 2 2 2 1 0 0 0 1 1 1 1 1 2 2 2 1 1 1 2 2 2 1
split_gain=1035.85 251.575 372.956 176.701 115.138 104.83 104.64 98.657 72.0036 69.3679 66.0649 61.511 40.4075 37.52 36.0447 35.5067 53.5093 32.7284 31.5966 30.1537 28.2205 28.0963 27.8183 26.0538 24.9103 24.4237 129.75 93.5858 43.6911 109.887
threshold=218.50000000000003 1250.9000000000003 17.065000000000001 293.50000000000006 1124.4000000000003 257.50000000000006 16.245000000000001 17.225000000000005 279.50000000000006 294.50000000000006 246.50000000000003 14.565000000000003 1440.0000000000002 1204.5500000000002 1390.8000000000004 15.885000000000003 15.125000000000002 16.795000000000005 17.485000000000003 17.825000000000003 301.50000000000006 288.50000000000006 307.50000000000006 17.415000000000003 17.205000000000002 15.845000000000001 289.50000000000006 279.50000000000006 268.50000000000006 15.035000000000002
decision_type=2 2 2 2 2 2 2 2 2 2 2 2 2 2 2 2 2 2 2 2 2 2 2 2 2 2 2 2 2 2
left_child=-1 2 9 6 5 10 11 21 12 13 18 -3 -8 -2 25 16 20 -10 23 24 -5 -7 -11 -4 -12 27 -27 28 29 -13
right_child=1 3 4 15 -6 7 8 -9 17 22 19 14 -14 -15 -16 -17 -18 -19 -20 -21 -22 -23 -24 -25 -26 26 -28 -29 -30 -31
leaf_value=0.1792380966057216 -0.10088317929096612 0.22921334995598111 -0.09659741506511263 0.064588279471990195 -0.085439189302709259 0.074037298412433547 -0.07741140069903954 -0.10436831524346953 -0.036314243528353531 -0.0026331032671404425 -0.084958498792037485 -0.10736626157875838 0.20335671527929713 -0.045022453946360105 0.067131264124028089 0.19308554784351528 -0.071644049188917175 0.21971032648644415 -0.090874427408480979 0.19496502250588049 0.18754846632922742 -0.098134314780965556 0.20478242695984303 0.15452541347691023 0.084748266144615961 -0.021061125694985847 0.23905800094044605 -0.079757394783977323 0.0070359184735218558 0.23533280268329554
leaf_count=1126 13270 65 64 291 1484 445 3438 1463 68 460 97 126 25 1816 913 189 182 62 429 101 148 176 31 75 1293 731 116 1319 1094 248
internal_value=0 -0.245438 -0.489098 0.173363 0.15003 0.349131 -0.014056 -0.29638 -0.546156 -0.863505 0.687109 0.241908 -0.709619 -0.924079 0.184072 1.21311 0.855894 1.21905 -0.335396 0.891979 1.22393 0.503123 0.301687 0.711478 0.783468 0.0374421 0.463545 -0.110359 0.362601 1.23918
internal_count=31345 30219 21204 9015 5627 4143 8205 2084 3593 15577 2059 4612 3463 15086 4547 810 621 130 568 1491 439 621 491 139 1390 3634 847 2787 1468 374
shrinkage=0.1


Tree=7
num_leaves=31
num_cat=0
split_feature=2 0 1 2 0 1 2 1 2 1 2 1 2 1 0 2 1 2 1 0 2 1 1 2 2 1 1 1 2 1
split_gain=869.174 216.153 333.716 144.324 97.615 88.1659 83.4635 86.76 66.5107 76.2924 63.5197 61.7164 56.0456 48.227 37.8625 37.2762 30.956 45.6475 29.2119 28.0566 24.2657 27.52 23.0583 22.8064 22.7202 22.6144 21.452 68.836 26.2539 21.307
threshold=183.00000000000003 1250.9000000000003 17.065000000000001 293.50000000000006 1124.4000000000003 16.245000000000001 257.50000000000006 17.225000000000005 271.50000000000006 16.755000000000006 294.50000000000006 16.875000000000004 251.50000000000003 14.565000000000003 1204.5500000000002 279.50000000000006 15.885000000000003 303.50000000000006 15.135000000000003 1387.5500000000002 246.50000000000003 17.505000000000006 17.755000000000006 288.50000000000006 307.50000000000006 17.745000000000001 16.165000000000003 15.395000000000001 266.50000000000006 15.885000000000003
decision_type=2 2 2 2 2 2 2 2 2 2 2 2 2 2 2 2 2 2 2 2 2 2 2 2 2 2 2 2 2 2
left_child=-1 2 10 5 6 13 12 23 -7 -10 14 -11 20 -3 -2 -13 17 18 -5 -15 21 -4 -14 -8 29 -22 27 -16 -29 -12
right_child=1 3 4 16 -6 8 7 -9 9 11 24 15 22 19 26 -17 -18 -19 -20 -21 25 -23 -24 -25 -26 -27 -28 28 -30 -31
leaf_value=0.16636564810054416 -0.099556033485800943 0.20041543092257097 0.049645459844126015 0.064303814304270943 -0.083134104520467822 -0.085588836256361725 0.063934466065963216 -0.10347939928723854 -0.084392898587486109 0.30758113678539883 -0.044743493013463198 -0.081553304127931436 0.072371551441703721 0.0021723744462644411 -0.085852089661598172 0.17219095583799093 0.17769993936107634 0.17304507850132878 -0.098862120027683853 0.055608210546314589 0.058410267943452568 -0.098164542877294758 0.15957828779822406 -0.09664721766655901 0.18566893919792279 -0.1026879529166379 -0.10066302098380764 -0.095918623167059125 0.12628976752227516 0.12085409185766521
leaf_count=1123 13272 65 163 320 1484 2779 445 1463 448 121 351 196 289 3524 692 49 189 133 168 1023 877 405 236 176 31 89 697 73 355 109
internal_value=0 -0.232061 -0.466684 0.155785 0.134095 -0.01551 0.311767 -0.279592 -0.523083 0.324736 -0.841993 1.3072 0.605421 0.213812 -0.904568 0.340552 1.09682 0.766737 0.256482 0.162182 0.279522 -0.316504 1.14091 0.440787 0.272322 0.483444 -0.422139 -0.153983 0.887377 -0.0237456
internal_count=31345 30222 21207 9015 5627 8205 4143 2084 3593 814 15580 366 2059 4612 15089 245 810 621 488 4547 1534 568 525 621 491 966 1817 1120 428 460
shrinkage=0.1


Tree=8
num_leaves=31
num_cat=0
split_feature=2 0 1 2 0 1 2 1 2 2 1 1 1 1 2 0 1 2 2 0 1 1 1 2 1 2 1 2 2 1
split_gain=737.423 187.11 299.927 119.27 83.072 76.4531 67.1595 76.6139 58.1596 54.2744 58.933 49.9305 57.564 46.7446 44.9308 38.0781 35.9646 27.9062 25.5413 22.3381 29.2186 19.8183 56.4377 19.7046 19.4347 19.3458 24.0409 18.9735 18.7179 18.4803
threshold=218.50000000000003 1250.9000000000003 17.065000000000001 292.50000000000006 1124.4000000000003 16.245000000000001 257.50000000000006 17.225000000000005 294.50000000000006 271.50000000000006 16.775000000000002 15.765000000000002 15.165000000000001 16.875000000000004 251.50000000000003 1204.5500000000002 14.565000000000003 281.50000000000006 302.50000000000006 1440.0000000000002 15.055000000000001 16.165000000000003 15.395000000000001 264.50000000000006 17.755000000000006 246.50000000000003 17.505000000000006 307.50000000000006 288.50000000000006 17.745000000000001
decision_type=2 2 2 2 2 2 2 2 2 2 2 2 2 2 2 2 2 2 2 2 2 2 2 2 2 2 2 2 2 2
left_child=-1 2 8 5 6 16 14 28 15 -7 -11 12 18 -12 25 -2 -3 -15 -5 -18 -21 22 -17 -24 -16 26 -4 -10 -8 -27
right_child=1 3 4 11 -6 9 7 -9 27 10 13 -13 -14 17 24 21 19 -19 -20 20 -22 -23 23 -25 -26 29 -28 -29 -30 -31
leaf_value=0.15604135947062936 -0.098496344784996165 0.17638763423237369 0.043296015572030312 0.047524902196471874 -0.080792830042143909 -0.083307240237799271 0.055608420714462682 -0.10263803937895839 -0.0023209241192712051 -0.079083590494000822 0.26219862644982056 0.17833991771065677 -0.098357175446467424 -0.060130666086711693 0.063761332963383849 -0.083164155755788047 0.010107773217803583 0.17671480674284742 0.1619676447847386 -0.11904065668358499 0.19020695576295751 -0.099198415778274845 -0.11048484027838437 0.10055992688237701 0.14341382454036417 0.050986093497007223 -0.0964195842851652 0.17136463237729949 -0.095161740235122083 -0.099161177059587741
leaf_count=1126 13270 62 163 347 1484 2779 445 1463 460 459 109 213 247 208 289 692 4335 33 137 29 57 696 62 366 236 877 405 31 176 89
internal_value=0 -0.219328 -0.446247 0.140791 0.120535 -0.0253364 0.280064 -0.263426 -0.822986 -0.516738 0.25872 0.95195 0.552809 1.13462 0.538248 -0.887445 0.186446 0.235238 0.921384 0.142035 1.23432 -0.39678 -0.144419 0.741923 1.01491 0.247743 -0.296305 0.246354 0.388039 0.424122
internal_count=31345 30219 21204 9015 5627 8071 4143 2084 15577 3588 809 944 731 350 2059 15086 4483 241 484 4421 86 1816 1120 428 525 1534 568 491 621 966
shrinkage=0.1


Tree=9
num_leaves=31
num_cat=0
split_feature=2 0 1 2 0 1 2 2 1 2 1 1 1 2 1 1 0 1 2 1 1 0 0 2 2 1 0 1 2 2
split_gain=630.81 161.499 268.39 99.3587 70.8261 65.3716 56.5075 54.3386 67.8801 47.8257 48.284 43.7222 47.7404 36.6553 38.1955 35.9138 108.934 74.0249 36.138 29.9286 29.4362 26.1108 23.9406 23.6257 23.0286 20.426 19.7601 18.1696 18.8581 18.4071
threshold=183.00000000000003 1250.9000000000003 17.065000000000001 292.50000000000006 1124.4000000000003 16.245000000000001 287.50000000000006 257.50000000000006 17.225000000000005 271.50000000000006 16.755000000000006 15.765000000000002 15.165000000000001 250.50000000000003 17.605000000000004 15.725000000000003 1151.2500000000002 16.585000000000004 307.50000000000006 16.865000000000006 14.565000000000003 1204.5500000000002 1216.7500000000002 302.50000000000006 277.50000000000006 17.275000000000002 1387.5500000000002 17.175000000000004 276.50000000000006 287.50000000000006
decision_type=2 2 2 2 2 2 2 2 2 2 2 2 2 2 2 2 2 2 2 2 2 2 2 2 2 2 2 2 2 2
left_child=-1 2 6 5 7 20 21 13 -9 -7 -11 12 23 14 25 18 -17 22 -8 -12 -3 -2 -18 -5 -21 -4 -22 28 -6 -30
right_child=1 3 4 11 27 9 15 8 -10 10 19 -13 -14 -15 -16 16 17 -19 -20 24 26 -23 -24 -25 -26 -27 -28 -29 29 -31
leaf_value=0.14807549431774161 -0.099733689396222652 0.15993893805115389 -0.091029981614866348 0.041532795891146945 -0.10555352675636223 -0.080986451986537589 -0.075990330487725216 0.034289470963571295 -0.10183402042040655 -0.079102725918851979 0.21517649876157841 0.16744879111813826 -0.096148757385012995 0.082071793661290166 -0.078246180683340993 -0.08625475757991144 0.54625437802682664 -0.10664096871794092 0.16028431181859068 -0.081127682123072808 0.00058283473219428151 -0.047031922643899438 0.25693504797683236 0.15247333504830057 0.12171759125642306 0.051690884679343477 0.045162041365526359 -0.10401180021942134 0.20173199384170648 -0.10608314502031729
leaf_count=1123 12274 62 146 347 147 2779 1075 621 1463 448 108 213 247 703 496 383 74 71 31 179 3408 1644 28 137 74 714 1013 1182 103 52
internal_value=0 -0.206751 -0.425324 0.127988 0.108581 -0.0240928 -0.801767 0.252265 -0.247854 -0.496276 0.234288 0.877258 0.504484 0.480697 0.150525 -0.130291 0.705153 2.69875 -0.528184 0.985402 0.16691 -0.90922 3.98013 0.829341 0.276308 0.397663 0.127092 -0.784091 0.142878 1.09259
internal_count=31345 30222 21207 9015 5627 8071 15580 4143 2084 3588 809 944 731 2059 1356 1662 556 173 1106 361 4483 13918 102 484 253 860 4421 1484 302 155
shrinkage=0.1


Tree=10
num_leaves=31
num_cat=0
split_feature=2 0 1 2 0 1 2 2 1 0 1 1 1 0 1 2 2 0 2 1 1 0 2 1 2 1 2 2 1 2
split_gain=543.575 139.918 241.402 83.2926 61.8651 55.8151 53.8846 43.559 60.4189 42.2762 38.9262 40.0135 31.2804 76.4624 39.1144 31.4774 31.1005 27.9904 27.8126 32.2136 40.2127 24.6607 21.0409 19.5749 38.1973 17.873 16.8666 16.854 15.7861 15.5345
threshold=218.50000000000003 1250.9000000000003 17.045000000000005 292.50000000000006 1124.4000000000003 16.245000000000001 287.50000000000006 257.50000000000006 17.225000000000005 1423.5000000000002 15.765000000000002 15.125000000000002 15.725000000000003 1151.2500000000002 16.585000000000004 306.50000000000006 251.50000000000003 1204.5500000000002 270.50000000000006 16.775000000000002 16.855000000000004 1430.0000000000002 301.50000000000006 14.685 266.50000000000006 17.755000000000006 286.50000000000006 261.50000000000006 17.175000000000004 276.50000000000006
decision_type=2 2 2 2 2 2 2 2 2 2 2 2 2 2 2 2 2 2 2 2 2 2 2 2 2 2 2 2 2 2
left_child=-1 2 6 5 7 21 17 16 26 18 11 22 15 -14 -15 -8 -4 -2 -7 -20 -21 23 -5 24 -3 -18 27 -9 29 -6
right_child=1 3 4 10 28 9 12 8 -10 -11 -12 -13 13 14 -16 -17 25 -19 19 20 -22 -23 -24 -25 -26 -27 -28 -29 -30 -31
leaf_value=0.14129103161422799 -0.099667643816338816 -0.043596437318680584 0.018801726838028346 0.036641753161374593 -0.10498054288797327 -0.088253322681800972 -0.07614371619057736 -0.036739642143916298 -0.10105798942980003 0.10769540575519845 0.15874869807664621 -0.076942110990349533 -0.083006603394525647 0.28570225537756705 -0.10589998097838611 0.12975798090270207 0.047200818341027566 -0.043557166175407482 -0.075320038849420387 0.24811095683755313 -0.0095804842131062013 0.098474453213357863 0.14278947523323518 0.0054932205691047313 0.26271813714224229 0.1233613736114019 -0.088158712680325158 0.071964083434833639 -0.10328781876723261 0.0770275851102874
leaf_count=1126 12185 62 1544 301 177 2587 1067 124 1463 112 213 282 367 102 63 39 290 1628 558 78 253 167 148 4213 41 236 201 356 1182 180
internal_value=0 -0.19526 -0.406077 0.11622 0.0926892 -0.0228857 -0.786962 0.224853 -0.226436 -0.475539 0.812423 0.461768 -0.118173 0.659504 2.1493 -0.507875 0.427529 -0.898787 -0.613492 -0.0432496 0.737547 0.149132 0.79134 0.0923157 1.16893 0.822641 0.295609 0.457314 -0.758056 0.018353
internal_count=31345 30219 21204 9015 5753 8071 15451 4214 2144 3588 944 731 1638 532 165 1106 2070 13813 3476 889 331 4483 449 4316 103 526 681 480 1539 357
shrinkage=0.1


Tree=11
num_leaves=31
num_cat=0
split_feature=2 0 1 2 1 1 0 2 2 1 2 1 0 0 0 2 1 0 1 2 1 2 2 1 1 1 2 1 1 1
split_gain=470.796 120.561 216.6 70.8527 115.331 94.3256 54.6375 50.2731 49.0577 40.7979 34.3318 55.2348 31.2594 30.0354 28.8279 26.9552 26.9425 59.8689 30.1445 27.43 23.3663 129.176 50.2093 57.1376 100.076 35.5661 21.4562 47.4809 39.9672 23.4316
threshold=183.00000000000003 1250.9000000000003 17.035000000000004 262.50000000000006 15.365 15.035000000000002 1126.1500000000003 287.50000000000006 303.50000000000006 14.635000000000003 257.50000000000006 17.225000000000005 1385.6500000000003 1418.6000000000001 1200.9500000000003 246.50000000000003 15.725000000000003 1136.6000000000001 16.545000000000005 307.50000000000006 15.845000000000001 289.50000000000006 268.50000000000006 15.055000000000001 15.515000000000002 14.785000000000002 277.50000000000006 15.625000000000002 14.935 15.125000000000002
decision_type=2 2 2 2 2 2 2 2 2 2 2 2 2 2 2 2 2 2 2 2 2 2 2 2 2 2 2 2 2 2
left_child=-1 2 7 4 5 -3 10 14 9 -5 15 -12 20 -7 -2 -4 19 -18 -19 -9 22 -22 23 -11 -25 -24 29 28 -28 -14
right_child=1 3 6 8 -6 13 -8 16 -10 12 11 -13 26 -15 -16 -17 17 18 -20 -21 21 -23 25 24 -26 -27 27 -29 -30 -31
leaf_value=0.13599593665244844 -0.099734284945287355 -0.11770050190216215 -0.030628037980817327 0.169288201504813 -0.086346338963764271 0.56771272862311328 -0.074922142723977389 -0.070643355752322848 0.13864058541881563 -0.11342698721969108 0.027277845837924454 -0.10033056826788873 -0.045032553931156245 0.21378665128832142 -0.04377563131576747 0.049864782242902611 -0.098253283226071741 0.22641449230401831 -0.10521345557614092 0.14529288230905971 -0.023473476892012415 0.17097268027602566 0.31697584302674309 0.33592686143055484 -0.11878519064431337 -0.032411610417459297 0.32031906672275184 0.20885431618028796 -0.0047948886349230384 0.055315781070412531
leaf_count=1123 11826 51 571 88 2294 35 1541 1075 179 83 720 1472 262 20 1934 1518 321 124 74 31 1788 214 21 106 54 2725 23 136 279 657
internal_value=0 -0.183645 -0.386145 0.105548 -0.545063 2.04615 0.0813808 -0.768763 0.23399 0.17387 0.202089 -0.203686 0.13396 3.95927 -0.883292 0.379909 -0.109556 0.612851 1.72046 -0.487943 0.00490912 0.302751 -0.156526 1.05583 1.90233 -0.287939 0.50335 0.964004 0.29773 0.229006
internal_count=31345 30222 21207 9015 2400 106 5822 15385 6615 6436 4281 2192 6348 55 13760 2089 1625 519 198 1106 4991 2002 2989 243 160 2746 1357 438 302 919
shrinkage=0.1


Tree=12
num_leaves=31
num_cat=0
split_feature=2 0 1 2 1 1 0 2 2 1 0 2 1 0 2 0 1 1 1 2 2 1 2 0 1 2 1 1 1 2
split_gain=409.988 103.003 195.279 60.5484 90.8597 60.5281 46.6561 46.4176 43.6834 33.696 29.7943 27.7666 49.2203 25.6967 24.6211 24.2432 46.0686 24.1811 22.4265 125.22 40.393 29.7992 21.6147 17.3542 16.3171 54.0378 27.4821 16.296 15.9679 36.5611
threshold=218.50000000000003 1250.9000000000003 17.035000000000004 262.50000000000006 15.365 15.035000000000002 1126.1500000000003 287.50000000000006 303.50000000000006 14.635000000000003 1204.5500000000002 257.50000000000006 17.225000000000005 1392.2 251.50000000000003 1126.1500000000003 15.725000000000003 16.585000000000004 15.845000000000001 281.50000000000006 279.50000000000006 15.105000000000002 307.50000000000006 1322.1500000000003 15.125000000000002 274.50000000000006 14.935 17.755000000000006 15.465000000000002 267.50000000000006
decision_type=2 2 2 2 2 2 2 2 2 2 2 2 2 2 2 2 2 2 2 2 2 2 2 2 2 2 2 2 2 2
left_child=-1 2 7 4 5 -3 11 10 9 -5 -2 14 -13 18 -4 -9 22 -18 20 -20 23 -22 -17 -11 25 -15 -27 -16 29 -25
right_child=1 3 6 8 -6 -7 -8 15 -10 13 -12 12 -14 24 27 16 17 -19 19 -21 21 -23 -24 28 -26 26 -28 -29 -30 -31
leaf_value=0.13122669189627797 -0.098315981095544236 -0.11588930613578136 0.013047488353053017 0.1547442301448233 -0.08404360495813977 0.29481939437120452 -0.072417900351637449 -0.096928100128775924 0.13375959199347895 0.066552573430430417 -0.03756299916837786 0.024196177027638537 -0.099587187210836162 -0.079157886857391641 0.036591760898463097 -0.061216809719975743 0.18361361641648177 -0.10479741445892313 -0.042087845537723573 0.12661934513693127 0.016160058767370953 -0.075649154249008199 0.13924152322721906 0.16666609801789434 0.07146722904482071 0.33565513672014435 -0.017211152814711327 0.10962341751228731 0.048775897674276349 -0.057283489578269779
leaf_count=1126 12137 51 1561 88 2294 55 1541 584 179 464 1620 720 1472 209 292 789 137 84 1734 399 342 1464 31 59 770 33 26 236 328 520
internal_value=0 -0.173602 -0.366583 0.0948057 -0.525768 1.65794 0.0730011 -0.750593 0.212112 0.156626 -0.867239 0.181507 -0.189764 0.120284 0.339033 -0.106103 0.190712 1.3867 0.0178959 0.302847 -0.135355 -0.480614 -0.356339 0.214973 0.506592 -0.0695174 2.00257 0.693193 -0.0173962 -0.306443
internal_count=31345 30219 21204 9015 2400 106 5822 15382 6615 6436 13757 4281 2192 6348 2089 1625 1041 221 5310 2133 3177 1806 820 1371 1038 268 59 528 907 579
shrinkage=0.1


Tree=13
num_leaves=31
num_cat=0
split_feature=2 0 1 2 0 0 1 0 2 1 1 1 2 1 1 2 1 1 2 2 1 2 1 1 1 2 2 2 1 2
split_gain=358.364 87.8313 174.931 52.8024 42.6878 40.0791 41.7739 39.9068 30.2163 44.4087 28.6986 28.3623 23.046 32.9928 23.9804 22.6886 44.997 21.6186 16.9528 16.8205 15.6511 15.6376 19.2021 21.4614 15.8853 15.4708 15.126 14.8317 14.5954 13.5129
threshold=183.00000000000003 1250.9000000000003 17.035000000000004 292.50000000000006 1158.2500000000002 1440.0000000000002 16.285000000000004 1126.1500000000003 286.50000000000006 15.725000000000003 15.765000000000002 15.165000000000001 270.50000000000006 16.755000000000006 16.875000000000004 258.50000000000006 17.225000000000005 17.815000000000001 307.50000000000006 302.50000000000006 16.465000000000003 245.50000000000003 17.475000000000005 17.425000000000004 17.185000000000006 300.50000000000006 279.50000000000006 288.50000000000006 17.175000000000004 261.50000000000006
decision_type=2 2 2 2 2 2 2 2 2 2 2 2 2 2 2 2 2 2 2 2 2 2 2 2 2 2 2 2 2 2
left_child=-1 2 4 5 25 6 -3 15 -6 18 11 19 -8 -14 -15 17 27 21 -10 -5 -11 22 23 -4 -23 -2 -16 29 -9 -17
right_child=1 3 7 10 8 -7 12 28 9 20 -12 -13 13 14 26 16 -18 -19 -20 -21 -22 24 -24 -25 -26 -27 -28 -29 -30 -31
leaf_value=0.12755497996904996 -0.10018660926143175 0.0069375555203651188 -0.11413312570784716 0.029855062876909373 -0.061611791114952442 0.11802391036666854 -0.080205087405823092 0.0060615619473437694 -0.063697573019009843 0.17884719299942323 0.14151743959602978 -0.09100940593790971 -0.087755803594079834 0.15923031395202972 -0.08368001742329359 -0.044210819019807029 -0.10097141146509958 0.11876617652338686 0.13343569407368688 0.13029410923558143 -0.10418622781025787 -0.098506072926687963 -0.10972036259315943 0.23727526409388169 0.03392042644414496 0.11477140110909181 0.10366249442142435 -0.095082279798277616 -0.10163870647261181 0.056769364736098928
leaf_count=1123 9538 4490 32 347 4921 142 2567 381 688 116 213 247 513 116 210 108 1459 125 27 137 61 106 280 21 1558 34 33 200 1160 392
internal_value=0 -0.163433 -0.346993 0.0854709 -0.729847 -0.0248041 -0.0732253 0.0659702 -0.431006 0.194797 0.672297 0.373005 -0.516846 -0.0137993 0.64341 0.164023 -0.182371 0.302857 -0.395491 0.61325 1.4583 0.230311 -0.535059 0.854281 0.295949 -0.978644 -0.122265 0.220537 -0.698651 0.360019
internal_count=31345 30222 21207 9015 15385 8071 7929 5822 5813 892 944 731 3439 872 359 4281 2159 2122 715 484 177 1997 333 53 1664 9572 243 700 1541 500
shrinkage=0.1


Tree=14
num_leaves=31
num_cat=0
split_feature=2 0 1 2 1 2 2 0 1 0 1 0 1 2 0 0 2 2 1 1 2 1 2 1 1 1 2 2 1 0
split_gain=313.985 75.856 162.887 48.7448 76.5654 39.7341 36.8948 32.3711 28.7548 25.8155 23.2237 19.4581 32.4866 19.2247 25.5685 19.1337 15.6295 15.429 15.4284 15.2497 56.5365 57.2065 34.9497 61.0891 21.5506 16.3009 108.339 16.8922 15.4921 15.3792
threshold=183.00000000000003 1244.5500000000002 17.035000000000004 261.50000000000006 15.365 287.50000000000006 301.50000000000006 1126.1500000000003 15.035000000000002 1200.9500000000003 14.635000000000003 1126.1500000000003 15.725000000000003 276.50000000000006 1099.3000000000004 1385.6500000000003 263.50000000000006 297.50000000000006 16.585000000000004 15.395000000000001 289.50000000000006 15.725000000000003 267.50000000000006 15.115 14.785000000000002 15.515000000000002 272.50000000000006 267.50000000000006 15.305000000000001 1319.5500000000002
decision_type=2 2 2 2 2 2 2 2 2 2 2 2 2 2 2 2 2 2 2 2 2 2 2 2 2 2 2 2 2 2
left_child=-1 2 5 4 8 9 10 13 -3 -2 16 -7 17 -4 -15 19 -5 -13 -14 22 25 -22 23 -12 -24 26 29 -27 -25 -21
right_child=1 3 7 6 -6 11 -8 -9 -10 -11 15 12 18 14 -16 -17 -18 -19 -20 20 21 -23 24 28 -26 27 -28 -29 -30 -31
leaf_value=0.12425513436975887 -0.097348569540574637 -0.11319815167497858 0.021302592339390938 -0.089874654764675432 -0.083553531005677487 -0.0946988523054305 0.11624812457007963 -0.066263305507339595 0.24762016381966401 -0.037696372623695011 -0.093591625352247229 -0.08487825806348942 0.14509029379585334 -0.096362630334255933 0.07302259207444449 0.037346269673103692 0.16689070087470345 0.04065035961502908 -0.10390361614945748 0.47544661090345058 -0.10755943946093847 0.15253289954034935 0.18688275457022527 0.15590437457807918 -0.045580775602626369 -0.08891760946336276 -0.050848239229274374 -0.007631707461056291 0.38846168749890936 0.22733979319180564
leaf_count=1123 11826 31 3432 22 2270 584 220 1491 48 1775 95 612 135 689 160 1396 77 181 84 29 167 222 27 41 1614 532 262 2135 25 40
internal_value=0 -0.153232 -0.331887 0.074605 -0.534982 -0.7273 0.172234 0.0624908 1.71806 -0.848295 0.11946 -0.0976888 0.174808 0.147856 -0.482648 0.0889496 1.2551 -0.35541 1.13736 -0.0140803 0.127476 1.03702 -0.238891 0.950475 -0.397599 -0.0839175 0.512097 -0.198547 2.43613 3.27035
internal_count=31345 30222 20969 9253 2349 15197 6904 5772 79 13601 6684 1596 1012 4281 849 6585 99 793 219 5189 3387 389 1802 161 1641 2998 331 2667 66 69
shrinkage=0.1


Tree=15
num_leaves=31
num_cat=0
split_feature=2 0 1 0 0 0 1 2 1 2 2 1 1 0 0 2 2 1 1 2 2 1 0 2 1 1 0 1 1 2
split_gain=276.098 64.4532 115.063 58.3305 43.2478 36.0091 35.2603 32.3477 55.5097 24.7391 23.76 17.5244 17.3012 17.5715 18.5624 13.7643 14.6172 17.5061 13.7248 98.4615 38.4051 34.9651 18.9058 16.6259 15.3958 25.4488 22.0315 14.0663 13.0391 74.302
threshold=218.50000000000003 1284.7500000000002 17.125000000000004 1204.5500000000002 1126.1500000000003 1440.0000000000002 16.245000000000001 261.50000000000006 15.415000000000001 303.50000000000006 296.50000000000006 15.035000000000002 17.035000000000004 1183.3000000000004 1195.6500000000003 279.50000000000006 246.50000000000003 17.535000000000004 15.805000000000001 279.50000000000006 283.50000000000006 15.105000000000002 1355.5500000000002 288.50000000000006 16.775000000000002 16.875000000000004 1334.1000000000001 15.705000000000002 15.175000000000002 275.50000000000006
decision_type=2 2 2 2 2 2 2 2 2 2 2 2 2 2 2 2 2 2 2 2 2 2 2 2 2 2 2 2 2 2
left_child=-1 2 3 10 15 7 -5 8 11 18 12 -3 -2 -14 -15 16 17 -4 20 24 27 -22 23 -21 -20 26 -26 28 29 -9
right_child=1 5 4 6 -6 -7 -8 9 -10 -11 -12 -13 13 14 -16 -17 -18 -19 19 22 21 -23 -24 -25 25 -27 -28 -29 -30 -31
leaf_value=0.12122369081459938 -0.090608226855837234 -0.1131211823891709 0.020658539871149056 0.0083174917470767613 -0.081442296877637155 0.10924760654144204 -0.0964132453267698 -0.053930858888167704 -0.084179631569314295 0.12445315367011817 0.030677092719909666 0.23697639175966231 -0.041035867039387108 0.38759347307353886 -0.10568941989975233 -0.05944575285281252 0.028047037863074088 -0.10171267835734626 -0.06224379412323016 -0.0089472744666459457 0.020205110679664476 -0.085189970954335573 0.16312068034092073 0.11552263256448779 0.40071851263210062 -0.061239770761192761 0.065254427449049843 -0.087510768114324566 0.043262069730293923 0.19216612965741445
leaf_count=1126 13249 20 190 1916 1516 204 1024 531 1753 127 252 33 474 38 27 571 2765 380 1284 133 328 1120 218 138 26 371 110 111 1204 106
internal_value=0 -0.143942 -0.293814 -0.578121 0.0708399 0.0936717 -0.130098 0.0421708 -0.544723 0.124965 -0.78689 1.72563 -0.837959 -0.21308 2.0163 0.171314 0.212477 -0.306306 0.0870892 0.311269 -0.0214005 -0.452771 1.11324 0.676484 -0.355865 0.219027 1.18078 0.212718 0.265176 -0.0659666
internal_count=31345 30219 22402 16980 5422 7817 2940 7613 1806 5807 14040 53 13788 539 65 3906 3335 570 5680 2280 3400 1448 489 271 1791 507 136 1952 1841 637
shrinkage=0.1


Tree=16
num_leaves=31
num_cat=0
split_feature=2 0 1 2 0 1 1 1 2 1 2 1 0 2 1 1 1 1 2 1 1 2 2 2 2 2 0 0 1 1
split_gain=243.277 54.5041 129.884 38.8083 38.0151 26.7873 73.7396 29.7539 28.1746 29.3179 27.3543 25.3816 23.8905 23.4869 36.8141 21.2196 21.0986 17.9002 15.0357 40.2184 19.415 14.8382 14.2636 13.4475 13.3741 12.8203 12.7098 23.6196 48.6002 14.7844
threshold=183.00000000000003 1244.5500000000002 17.035000000000004 292.50000000000006 1158.2500000000002 17.335000000000004 17.265000000000004 16.285000000000004 251.50000000000003 17.315000000000001 270.50000000000006 16.755000000000006 1126.1500000000003 285.50000000000006 15.725000000000003 15.765000000000002 15.195000000000002 16.905000000000005 258.50000000000006 17.225000000000005 17.825000000000003 276.50000000000006 296.50000000000006 302.50000000000006 287.50000000000006 308.50000000000006 954.35000000000002 1079.7 17.415000000000003 17.205000000000002
decision_type=2 2 2 2 2 2 2 2 2 2 2 2 2 2 2 2 2 2 2 2 2 2 2 2 2 2 2 2 2 2
left_child=-1 2 4 5 22 6 7 -3 -8 -10 -9 -12 18 -6 25 16 23 -13 20 -20 26 -14 -2 -5 -23 -15 -4 29 -29 -28
right_child=1 3 12 15 13 -7 8 10 9 -11 11 17 21 14 -16 -17 -18 -19 19 -21 -22 24 -24 -25 -26 -27 27 28 -30 -31
leaf_value=0.11897552550898532 -0.099813816775204955 0.0071029626480267078 -0.011581526589342597 0.026406534204734572 -0.057382239227027114 -0.10348989763817587 -0.10314267545365663 -0.098920184531935351 0.48982585663765194 0.0047350877811451041 -0.085057548232636976 0.10592273807200894 -0.10009355107333273 -0.063734075955063529 0.1257559496828668 0.13156497691368452 -0.096795783605817642 -0.036235251018171627 0.020076232236277667 -0.10042781716567824 0.11801384944725851 0.084416201458052037 0.041963640728480224 0.12021380770213526 -0.10413034602016136 0.12840501569460586 -0.1210200268195733 0.084962211527985262 -0.10813438782128071 0.055502225709115477
leaf_count=1123 9470 4704 721 364 4670 818 50 1677 105 40 523 177 1117 720 212 214 230 206 700 1459 105 211 102 145 163 23 55 130 214 897
internal_value=0 -0.134705 -0.293051 0.0608127 -0.683045 -0.0316604 0.00811655 -0.0308667 2.93777 3.77497 -0.489136 -0.0171924 0.049332 -0.375785 0.179552 0.593537 0.341348 0.493559 0.118894 -0.170262 0.229814 -0.613711 -0.955119 0.527941 0.165409 -0.428771 0.169518 0.309326 -0.266472 0.501161
internal_count=31345 30222 20969 9253 15197 8300 7482 7287 195 145 2583 906 5772 5625 955 953 739 383 4281 2159 2122 1491 9572 509 374 743 2017 1296 344 952
shrinkage=0.1


Tree=17
num_leaves=31
num_cat=0
split_feature=2 0 1 2 1 2 2 1 2 1 0 0 1 1 2 0 1 2 1 2 1 1 2 1 2 2 1 2 0 2
split_gain=214.854 47.2716 136.157 41.204 48.5307 33.4907 29.3142 27.3468 17.874 17.5067 15.3162 13.8181 20.1864 15.036 13.7878 13.579 12.6882 41.1792 59.868 39.2073 104.069 37.2273 117.853 27.7153 59.9762 50.2937 29.5733 27.4143 22.4412 19.8954
threshold=218.50000000000003 1224.3500000000001 17.035000000000004 261.50000000000006 15.365 288.50000000000006 303.50000000000006 15.035000000000002 287.50000000000006 14.635000000000003 1453.2000000000003 1126.1500000000003 15.785000000000002 16.605000000000004 245.50000000000003 1199.6500000000003 15.395000000000001 289.50000000000006 15.725000000000003 266.50000000000006 15.045000000000002 15.515000000000002 272.50000000000006 15.035000000000002 272.50000000000006 281.50000000000006 14.885000000000003 268.50000000000006 1253.7500000000002 269.50000000000006
decision_type=2 2 2 2 2 2 2 2 2 2 2 2 2 2 2 2 2 2 2 2 2 2 2 2 2 2 2 2 2 2
left_child=-1 2 5 4 7 15 9 -3 14 -5 16 -7 -13 -14 -4 -2 19 21 -19 20 -11 22 28 24 -21 26 -26 -23 -18 -25
right_child=1 3 8 6 -6 11 -8 -9 -10 10 -12 12 13 -15 -16 -17 17 18 -20 23 -22 27 -24 29 25 -27 -28 -29 -30 -31
leaf_value=0.11660093131492295 -0.095500456891492919 -0.10941969017484671 -0.060057755640988787 0.10885436584376279 -0.080733585919354867 -0.090009704354770084 0.12110918640643252 0.19703092345303652 -0.093170040176937391 -0.10840938508099579 0.13667424000304287 -0.023497109670891782 0.16795915823128513 -0.10352945713773265 0.012903681747448024 -0.040033256968672486 0.53472395229138436 -0.10756165285107118 0.13887656426381198 -0.10249605908445812 0.22808743919923991 -0.081055121562710983 -0.030978594537764387 0.059612526341556074 0.37475681454637888 0.02142625094397322 0.09996646130830561 0.0017000686972210026 0.22147770289458324 -0.061117745497723419
leaf_count=1126 11896 57 509 107 2531 482 190 48 527 157 55 646 75 82 4585 1319 20 211 282 268 112 925 353 87 52 286 69 2586 106 1596
internal_value=0 -0.126164 -0.286374 0.0458078 -0.535538 -0.738806 0.13146 1.14477 0.0524325 0.0938133 0.0685606 -0.0371185 0.240383 1.21301 0.0881916 -0.864293 0.0512021 0.169349 0.909453 -0.108918 0.843045 0.0251815 0.727812 -0.253546 0.204435 0.770978 2.30357 -0.138843 2.58572 -0.498341
internal_count=31345 30219 20121 10098 2636 14500 7462 105 5621 7272 7165 1285 803 157 5094 13215 7110 4483 493 2627 269 3990 479 2358 675 407 121 3511 126 1683
shrinkage=0.1


Tree=18
num_leaves=31
num_cat=0
split_feature=2 0 1 0 1 2 1 1 0 1 1 1 2 1 2 1 2 1 2 2 1 0 0 2 1 2 2 1 1 2
split_gain=190.271 41.5016 42.7274 92.0618 34.7858 26.3775 30.9473 35.8211 26.0268 24.6634 32.8695 20.681 19.4664 28.5541 19.0406 19.999 19.0345 16.404 15.3455 15.2085 16.5788 34.339 14.3924 13.8957 13.7354 35.8506 23.8205 56.8215 23.9666 20.6079
threshold=183.00000000000003 1378.3500000000001 17.135000000000002 1204.5500000000002 16.325000000000003 276.50000000000006 15.645000000000001 14.995000000000003 1126.1500000000003 15.625000000000002 15.125000000000002 17.325000000000003 270.50000000000006 15.455000000000002 295.50000000000006 17.035000000000004 286.50000000000006 16.775000000000002 304.50000000000006 250.50000000000003 17.265000000000004 1313.8000000000004 1397.8500000000001 261.50000000000006 15.395000000000001 265.50000000000006 267.50000000000006 15.055000000000001 14.865 276.50000000000006
decision_type=2 2 2 2 2 2 2 2 2 2 2 2 2 2 2 2 2 2 2 2 2 2 2 2 2 2 2 2 2 2
left_child=-1 2 3 14 18 9 7 -7 -4 10 -3 19 -12 -14 15 -2 22 -11 24 -10 -21 -22 -9 -17 26 -26 27 -5 -28 -27
right_child=1 5 8 4 -6 6 -8 16 11 17 12 -13 13 -15 -16 23 -18 -19 -20 20 21 -23 -24 -25 25 29 28 -29 -30 -31
leaf_value=0.11499284227072021 -0.087432636358023008 -0.038020872178215481 0.014161372238075801 -0.093632170351961808 -0.066148238818252034 0.13357634617422612 0.14602916674850999 -0.038390003244373215 -0.10273343849701758 -0.091294219845669211 0.1288802986578004 -0.10274542433117578 -0.078561494024354361 0.15750858929931269 0.016980526947229416 -0.11416164665408815 -0.093008044969370818 0.010082760501837366 0.11376042485919324 0.0047258289900297705 0.028793315006502753 0.58867280987249193 0.10358036360361518 0.0097490065603682563 -0.088654846060179329 0.075276510268288452 0.057642145886697006 0.15437767677837147 -0.047027321781641505 0.0099623472065937108
leaf_count=1123 13173 322 3839 209 2252 137 246 130 264 642 180 1419 100 50 353 178 226 544 97 290 94 38 81 424 415 763 258 115 1906 1477
internal_value=0 -0.118261 -0.186545 -0.312241 -0.0622096 0.245759 0.640624 0.274283 0.0552399 -0.00754027 0.316587 -0.57137 0.811138 0.0806409 -0.710287 -0.77091 -0.199497 -0.481153 0.0399594 0.206991 0.779443 2.31933 0.329546 -0.191709 0.011157 0.169861 -0.171826 0.543756 -0.323352 0.303841
internal_count=31345 30222 27564 21620 7492 2658 820 574 5944 1838 652 2105 330 150 14128 13775 437 1186 5240 686 422 132 211 602 5143 2655 2488 324 2164 2240
shrinkage=0.1


Tree=19
num_leaves=31
num_cat=0
split_feature=2 0 1 0 1 0 2 1 1 1 1 1 2 2 2 1 1 2 0 2 1 1 1 2 0 0 2 2 1 1
split_gain=168.651 34.4797 36.3564 82.9926 26.6475 22.4859 22.4179 26.4067 26.0013 22.1814 20.505 18.0572 21.4887 21.383 17.5756 54.582 30.8851 16.3251 15.6108 14.4107 14.3065 14.2209 25.3772 24.2094 16.7386 14.1906 13.2661 11.7778 14.9451 12.145
threshold=183.00000000000003 1378.3500000000001 17.135000000000002 1158.2500000000002 16.365000000000006 1122.6000000000001 277.50000000000006 15.725000000000003 15.275 17.325000000000003 15.625000000000002 15.125000000000002 272.50000000000006 273.50000000000006 290.50000000000006 15.745000000000003 15.235000000000001 283.50000000000006 1204.5500000000002 250.50000000000003 17.035000000000004 15.555000000000001 15.665000000000001 275.50000000000006 1196.6500000000003 1440.0000000000002 296.50000000000006 269.50000000000006 16.775000000000002 16.815000000000001
decision_type=2 2 2 2 2 2 2 2 2 2 2 2 2 2 2 2 2 2 2 2 2 2 2 2 2 2 2 2 2 2
left_child=-1 2 3 20 14 -4 10 8 -8 19 11 13 -13 -3 18 16 -16 -10 21 -7 26 -5 23 -23 -25 -12 -2 -6 -29 -30
right_child=1 6 5 4 27 9 7 -9 17 -11 25 12 -14 -15 15 -17 -18 -19 -20 -21 -22 22 -24 24 -26 -27 -28 28 29 -31
leaf_value=0.11336420846589544 -0.098334003861120886 -0.056732011988057864 0.012958236135621219 -0.096940109986250397 -0.10305727558786026 -0.1030285270270702 0.086057108407727456 0.14078701438755953 0.033149707160450598 -0.10281384073167335 -0.055992002359094045 0.10421889181687456 -0.022042164969749416 0.1293092495665856 0.024280292603098289 0.1438333737679259 -0.1045268024814807 -0.11509198061605369 -0.0047937073294686541 0.07202906492455223 -0.03017158793602541 0.79255281401965672 -0.038832569395074144 -0.0078800331869244254 0.60401018724520217 0.14686797596388448 0.03928491396159689 -0.088272917402598516 0.17922970777264113 -0.0087180087033297774
leaf_count=1123 9470 287 3778 1865 1491 268 250 224 112 1467 1172 218 141 49 732 184 545 182 4187 431 517 33 929 106 26 23 102 817 59 557
internal_value=0 -0.110326 -0.173304 -0.292422 -0.112344 0.0487333 0.22498 0.619743 0.257055 -0.530738 0.00502694 0.281315 0.627024 -0.228161 -0.0301988 0.287948 -0.0688844 -0.423919 -0.127522 0.22812 -0.807562 -0.578797 -0.0200882 2.55021 1.20976 -0.44259 -0.929608 -0.601693 -0.313488 0.147203
internal_count=31345 30222 27564 21620 11531 5944 2658 768 544 2166 1890 695 359 336 8607 1461 1277 294 7146 699 10089 2959 1094 165 132 1195 9572 2924 1433 616
shrinkage=0.1


Tree=20
num_leaves=31
num_cat=0
split_feature=2 2 0 1 0 1 0 1 2 2 1 1 2 2 1 1 2 1 1 0 2 2 1 1 1 1 2 2 1 1
split_gain=149.865 30.8215 25.2525 33.6349 77.639 20.533 19.6172 18.911 35.2477 23.6773 50.0887 25.4499 23.4082 22.0133 100.997 42.3214 39.7295 28.3941 17.9482 17.1217 16.566 15.494 24.2378 22.1826 17.291 17.4801 16.8935 14.9714 14.5163 14.3141
threshold=218.50000000000003 302.50000000000006 1385.6500000000003 17.135000000000002 1165.1500000000003 16.365000000000006 1126.1500000000003 15.395000000000001 266.50000000000006 267.50000000000006 15.035000000000002 14.865 294.50000000000006 273.50000000000006 15.605000000000002 15.575000000000001 288.50000000000006 16.105000000000004 17.325000000000003 1244.5500000000002 275.50000000000006 277.50000000000006 15.625000000000002 15.345000000000001 15.575000000000001 15.125000000000002 273.50000000000006 273.50000000000006 17.035000000000004 16.775000000000002
decision_type=2 2 2 2 2 2 2 2 2 2 2 2 2 2 2 2 2 2 2 2 2 2 2 2 2 2 2 2 2 2
left_child=-1 2 3 4 28 7 -5 9 -9 10 -6 -11 -13 14 19 20 -17 -16 -8 -10 -15 24 23 -23 25 26 -4 -27 -2 -26
right_child=1 -3 21 6 5 -7 18 8 13 11 -12 12 -14 15 17 16 -18 -19 -20 -21 -22 22 -24 -25 29 27 -28 -29 -30 -31
leaf_value=0.11168949676528771 -0.09219927611755685 0.089499045022965948 -0.05441881728936674 0.011406759524667827 -0.096743536766069615 -0.054877567266933207 0.014611034610831448 -0.081577773112984697 0.44407770566866173 0.046918841858789563 0.13209937376568648 -0.071686836110950419 0.010767648782476318 0.084664257778069463 -0.090084354843115833 0.00061349280704101755 0.10474264203839652 0.10393432192366972 -0.10224599096513765 0.21182984891076631 -0.078869037661956048 0.077386185031293492 0.15859376391280386 -0.071536072960301553 -0.089726290287066746 0.097607687539247381 0.11397011596699463 -0.036660992603982694 -0.028469619976983995 0.015736080677732234
leaf_count=1126 10060 278 261 3838 267 2991 700 603 62 403 135 2957 414 92 318 1680 330 223 1450 97 811 178 136 153 497 202 44 71 530 438
internal_value=0 -0.103055 -0.12239 -0.171021 -0.28646 -0.114283 0.0422185 -0.042929 0.122689 -0.243649 0.456273 -0.375183 -0.514403 0.243189 0.813436 0.103436 0.373647 -0.249182 -0.526717 2.56154 -0.602542 0.209013 0.628847 0.214452 0.0249522 0.297322 -0.21431 0.689006 -0.795133 -0.430476
internal_count=31345 30219 29941 27961 21973 11383 5988 8392 4216 4176 402 3774 3371 3613 700 2913 2010 541 2150 159 903 1980 467 331 1513 578 305 273 10590 935
shrinkage=0.1


Tree=21
num_leaves=31
num_cat=0
split_feature=2 0 2 1 0 1 2 1 1 0 1 1 0 1 2 2 1 1 2 1 0 0 0 0 1 2 2 1 2 0
split_gain=133.226 27.6473 23.9368 19.5796 84.7226 23.6628 18.5069 21.9285 18.7304 14.2007 33.1217 19.172 23.729 13.7528 21.1444 13.4714 13.2686 20.1037 12.0176 11.9716 10.9242 10.6363 10.8567 10.4433 57.1739 17.0536 15.9207 12.5749 10.3067 10.1185
threshold=183.00000000000003 1440.0000000000002 306.50000000000006 17.135000000000002 1210.4500000000003 16.325000000000003 269.50000000000006 16.755000000000006 16.905000000000005 1122.6000000000001 17.315000000000001 17.265000000000004 1277.4500000000003 17.035000000000004 286.50000000000006 277.50000000000006 15.865 16.585000000000004 261.50000000000006 17.155000000000005 976.6500000000002 919.35000000000002 1183.3000000000004 1079.7 17.415000000000003 258.50000000000006 252.50000000000003 17.225000000000005 274.50000000000006 1195.6500000000003
decision_type=2 2 2 2 2 2 2 2 2 2 2 2 2 2 2 2 2 2 2 2 2 2 2 2 2 2 2 2 2 2
left_child=-1 2 3 4 13 -6 -7 -8 -9 20 11 15 -13 14 -2 -11 -16 -18 -15 -17 28 -20 -23 25 -25 26 -22 -27 -5 -24
right_child=1 -3 -4 9 5 6 7 8 -10 10 -12 12 -14 18 16 19 17 -19 21 -21 23 22 29 24 -26 27 -28 -29 -30 -31
leaf_value=0.11067097274607487 -0.087925962861697293 0.091512692765142539 0.10646365735671613 -0.003399730489540953 0.0053238821593525627 -0.1029012285383588 -0.092391620002474431 0.092891527075168387 -0.054044877407283046 -0.085671174441936282 -0.10004019312735644 -0.071950039552767991 0.25744258677740456 -0.11197691579040797 -0.0582121889723081 0.30638215794342116 0.11149024688129816 -0.10238672367542 0.11822174537798083 0.0015318005448688797 0.030255942546251288 -0.037691080487903074 0.23935553460352971 0.071926425717022097 -0.1021759250096954 0.023623258039312433 0.10310416978724556 -0.10272129275897389 -0.11489315185553949 -0.10587045405623428
leaf_count=1123 12271 204 157 1369 6346 1581 660 211 250 404 1753 114 110 187 1084 30 201 320 74 81 623 342 38 298 392 116 195 526 259 26
internal_value=0 -0.0962033 -0.113712 -0.126948 -0.205291 -0.0175795 -0.481441 -0.127192 0.34792 0.0377209 -0.398106 0.449853 1.53626 -0.644158 -0.73738 -0.205358 -0.159499 0.458093 -0.165328 1.02566 0.104314 0.0854529 -0.158453 0.236126 -0.0738894 0.369071 0.515943 -0.285672 -0.0909519 1.36941
internal_count=31345 30222 30018 29861 23591 9048 2702 1121 461 6270 2492 739 224 14543 13876 515 1605 521 667 111 3778 480 406 2150 690 1460 818 642 1628 64
shrinkage=0.1


Tree=22
num_leaves=31
num_cat=0
split_feature=2 2 0 1 0 2 1 1 1 2 1 1 2 1 2 1 1 2 1 2 2 2 1 0 1 2 0 2 1 1
split_gain=118.718 23.678 20.395 16.3137 76.6591 21.6946 40.9093 24.1629 14.8081 21.331 12.9704 13.5659 24.1607 40.4776 24.1274 39.8449 21.1991 63.9313 21.1583 37.1895 21.9835 19.4416 15.1805 14.0146 18.9821 12.7009 19.7951 12.3735 11.1044 20.7364
threshold=218.50000000000003 306.50000000000006 1440.0000000000002 17.135000000000002 1204.5500000000002 262.50000000000006 15.445000000000002 15.035000000000002 17.035000000000004 288.50000000000006 14.635000000000003 15.395000000000001 266.50000000000006 15.045000000000002 289.50000000000006 15.725000000000003 15.515000000000002 274.50000000000006 15.035000000000002 272.50000000000006 279.50000000000006 269.50000000000006 15.885000000000003 1227.0000000000002 14.865 274.50000000000006 1390.8000000000004 245.50000000000003 15.905000000000003 16.605000000000004
decision_type=2 2 2 2 2 2 2 2 2 2 2 2 2 2 2 2 2 2 2 2 2 2 2 2 2 2 2 2 2 2
left_child=-1 2 3 4 8 6 7 -6 9 -2 -7 12 13 -12 16 -16 17 -13 19 -14 23 -18 -17 -21 -25 -26 -27 -5 -11 -30
right_child=1 -3 -4 27 5 10 -8 -9 -10 28 11 14 18 -15 15 22 21 -19 -20 20 -22 -23 -24 24 25 26 -28 -29 29 -31
leaf_value=0.10925979485385068 -0.088938734265071845 0.10383910265966781 0.082456564685766898 -0.060841623596064404 -0.10716321364024109 0.10135327165420148 -0.10545211250836282 0.155009020869882 -0.014608936209893739 -0.050488394482337745 -0.099388660891630842 0.15547465282365333 -0.094480831058433967 0.14789259198237314 -0.10565561408361535 0.30557524318961304 -0.070444428363667919 -0.042025101044707448 -0.049366146572739508 -0.04769147576865037 0.012719693433167902 0.0025354188593347811 0.096733000661046273 0.30473294045688237 -0.060730953085093235 0.40716037533787308 0.037462695842271111 0.007284919312320383 0.14732055889076953 -0.10223938418485522
leaf_count=1126 12323 189 172 665 89 91 1515 56 651 776 133 163 321 100 221 20 985 344 1864 79 398 2725 270 36 34 20 20 5605 80 274
internal_value=0 -0.0897105 -0.103413 -0.117936 -0.190486 -0.0220993 -0.578392 0.764379 -0.642902 -0.752105 0.0310804 0.0113567 -0.156408 0.685312 0.134591 0.743229 0.0298001 0.537111 -0.259704 0.105685 0.472105 -0.0996805 1.14166 1.36191 1.74281 0.864966 1.73562 0.0329718 -0.057694 0.614619
internal_count=31345 30219 30030 29858 23588 9484 1660 145 14104 13453 7824 7733 3005 233 4728 511 4217 507 2772 908 587 3710 290 189 110 74 40 6270 1130 354
shrinkage=0.1


Tree=23
num_leaves=31
num_cat=0
split_feature=2 2 0 1 0 2 1 1 1 0 1 1 0 1 0 2 1 1 2 1 1 1 2 2 1 1 2 1 1 2
split_gain=105.786 21.0832 17.2242 13.8641 67.3837 20.1774 33.9775 15.5919 14.8981 12.0374 26.2455 13.5029 15.7475 11.8864 23.8655 22.7206 44.2829 24.9527 56.107 38.5291 27.6103 22.3691 20.1004 20.0083 20.6517 17.5709 25.3179 33.7588 16.9243 32.904
threshold=183.00000000000003 307.50000000000006 1440.0000000000002 17.135000000000002 1158.2500000000002 261.50000000000006 15.365 15.035000000000002 17.035000000000004 1126.1500000000003 17.325000000000003 17.265000000000004 1277.4500000000003 15.395000000000001 1232.0500000000002 288.50000000000006 15.725000000000003 15.705000000000002 275.50000000000006 15.625000000000002 15.645000000000001 15.885000000000003 279.50000000000006 267.50000000000006 15.475000000000003 14.685 266.50000000000006 15.045000000000002 15.035000000000002 271.50000000000006
decision_type=2 2 2 2 2 2 2 2 2 2 2 2 2 2 2 2 2 2 2 2 2 2 2 2 2 2 2 2 2 2
left_child=-1 2 3 4 8 6 7 -6 -2 -5 11 -11 -13 14 -7 17 -17 18 19 23 -20 -18 -22 24 -15 -16 27 -27 29 -28
right_child=1 -3 -4 9 5 13 -8 -9 -10 10 -12 12 -14 15 25 16 21 -19 20 -21 22 -23 -24 -25 -26 26 28 -29 -30 -31
leaf_value=0.10856424609818667 -0.090278166419053729 0.11205954798065915 0.076319194131962406 0.0088656839858455728 -0.10620942864705024 -0.073995427820962939 -0.10503872253888465 0.15067493862114378 -0.022010944609600555 -0.031307275755494378 -0.10209700593648761 -0.073852137706453422 0.17775021033664729 0.19417469786251487 0.09683115926255681 -0.1052568758002829 0.26260857700376761 -0.024986506410865587 -0.050866662499040573 -0.071523155616994238 0.27057975579939997 0.072757050378620236 0.021379172129112015 0.16333078797958528 -0.073576961513486097 -0.10868899362875938 -0.10449702476375633 0.14068724374121436 -0.042837703593168582 0.048238625168770449
leaf_count=1123 9568 168 175 3839 67 2378 1615 41 517 504 1665 132 131 20 122 332 34 4381 931 117 59 418 157 335 50 104 226 95 1623 418
internal_value=0 -0.0835366 -0.0952217 -0.108743 -0.177274 -0.0545217 -0.635391 0.835802 -0.738963 0.0297282 -0.392597 0.312624 1.08594 -0.0112108 -0.156291 0.0985589 0.586293 -0.0110773 0.290143 0.973099 -0.245394 0.932791 0.974333 1.31158 0.204263 -0.0291015 -0.0958402 0.783072 -0.212271 0.146205
internal_count=31345 30222 30054 29879 23608 13523 1723 108 10085 6271 2432 767 263 11800 4966 6834 784 6050 1669 522 1147 452 216 405 70 2588 2466 199 2267 644
shrinkage=0.1


Tree=24
num_leaves=31
num_cat=0
split_feature=2 2 0 1 0 0 1 1 1 2 0 2 1 2 1 1 1 2 2 2 2 2 1 1 1 2 1 1 2 1
split_gain=94.5691 19.0745 14.3478 21.5227 56.8327 12.792 12.8641 12.2993 13.0129 22.998 16.4424 14.4487 23.9487 15.8538 61.5311 22.859 14.8923 14.4384 36.6993 14.4082 16.0733 13.799 23.4434 21.5579 11.7602 11.719 17.162 12.489 12.5393 10.9782
threshold=218.50000000000003 301.50000000000006 1378.3500000000001 17.125000000000004 1158.2500000000002 1126.1500000000003 17.325000000000003 16.365000000000006 15.395000000000001 263.50000000000006 1232.0500000000002 290.50000000000006 15.745000000000003 276.50000000000006 15.645000000000001 15.645000000000001 16.025000000000002 283.50000000000006 277.50000000000006 294.50000000000006 296.50000000000006 267.50000000000006 15.035000000000002 14.805000000000001 15.235000000000001 277.50000000000006 15.785000000000002 14.975000000000003 283.50000000000006 17.035000000000004
decision_type=2 2 2 2 2 2 2 2 2 2 2 2 2 2 2 2 2 2 2 2 2 2 2 2 2 2 2 2 2 2
left_child=-1 2 3 4 29 -5 -7 8 10 -10 -6 13 -13 14 -11 -15 -16 18 21 -19 -21 22 -12 -23 -20 -4 27 -27 -29 -2
right_child=1 -3 25 5 7 6 -8 -9 9 11 17 12 -14 15 16 -17 -18 19 24 20 -22 23 -24 -25 -26 26 -28 28 -30 -31
leaf_value=0.10733452384578733 -0.092981996679945625 0.070954353242170601 -0.002341604902465697 0.0078617455364485868 -0.07245860234533974 0.0038740126632532523 -0.10164797551033544 -0.048211731412830146 -0.10263244518193143 0.12782981202179114 -0.090127495212476871 -0.10356185522229083 0.11940997058146918 -0.069282343834228488 -0.087760263998673219 0.016451240926180631 0.022496112671828401 -0.087229561339506614 0.28929693673332896 0.15595185692932861 -0.024009555444372888 0.18837775951183522 0.098594288946433503 -0.057999537583056572 0.059448424783563963 0.10902501715030968 0.12355358436420319 0.051586282730794811 -0.057157739640309527 -0.026405979200019948
leaf_count=1126 9545 334 1890 3899 2372 710 1419 2889 399 392 141 197 184 749 466 1340 452 678 54 52 305 24 105 473 42 68 165 141 291 443
internal_value=0 -0.0783774 -0.0948936 -0.138377 -0.247161 0.0255053 -0.474544 -0.103531 -0.0469649 0.0966831 -0.228261 0.170141 0.792686 0.0814442 0.402387 -0.134233 -0.360739 -0.0782846 0.19866 -0.385623 -0.0174131 -0.023714 0.469627 -0.374873 2.04824 0.134938 0.45894 0.164229 -0.083885 -0.792482
internal_count=31345 30219 29885 27330 21302 6028 2129 11314 8425 4179 4246 3780 381 3399 1310 2089 918 1874 839 1035 357 743 246 497 96 2555 665 500 432 9988
shrinkage=0.1


Tree=25
num_leaves=31
num_cat=0
split_feature=2 2 0 2 1 0 1 2 2 1 1 1 1 0 1 2 0 1 2 0 1 2 1 2 2 0 0 1 0 2
split_gain=84.4317 17.2761 13.6685 11.7379 12.1813 54.4783 14.7416 13.2122 12.2069 27.8694 12.1567 11.2776 9.65772 9.31984 9.01394 49.0237 29.0147 25.5237 22.8385 17.3707 16.7904 14.9336 12.7386 9.37577 8.7752 10.2877 8.59564 8.39364 18.8665 18.6293
threshold=183.00000000000003 307.50000000000006 1440.0000000000002 244.50000000000003 17.135000000000002 1158.2500000000002 17.035000000000004 291.50000000000006 261.50000000000006 15.365 15.035000000000002 15.055000000000001 14.565000000000003 1099.3000000000004 17.315000000000001 255.50000000000003 1079.7 17.415000000000003 249.50000000000003 1039.0500000000002 17.805000000000003 291.50000000000006 17.265000000000004 267.50000000000006 261.50000000000006 919.35000000000002 1122.6000000000001 15.395000000000001 1232.0500000000002 266.50000000000006
decision_type=2 2 2 2 2 2 2 2 2 2 2 2 2 2 2 2 2 2 2 2 2 2 2 2 2 2 2 2 2 2
left_child=-1 2 3 -2 5 6 7 -5 9 10 -7 12 -4 -9 18 16 19 26 -6 20 -16 22 23 -20 -8 -26 -18 28 -10 -29
right_child=1 -3 11 4 14 8 24 13 27 -11 -12 -13 -14 -15 15 -17 17 -19 21 -21 -22 -23 -24 -25 25 -27 -28 29 -30 -31
leaf_value=0.10690121724426185 -0.088824881667272829 0.11010780548814564 0.111285622426975 -0.099284471699215296 -0.072807429421932829 -0.10521607629844915 -0.11138119133630885 -0.10354609368201512 -0.069497928146172505 -0.10462986108806177 0.13728114148991963 0.11968462376701899 -0.12409204299495571 0.096451642819997532 0.0023169929098149191 -0.097977818731301444 0.089381272312494681 -0.10104430393865671 0.01228297206392092 0.075096208288454647 0.10910977272251099 -0.078120759586579339 0.1310757474237266 0.083564733585351672 0.10780447047006772 -0.02576269418324505 -0.077583698940267745 -0.069997608905613143 -0.0027147663646981488 0.013798047845891767
leaf_count=1123 852 168 24 9190 264 67 137 187 2378 1227 41 122 29 184 981 1979 56 774 425 291 90 265 233 199 74 300 263 630 2588 6204
internal_value=0 -0.0727723 -0.0830014 -0.0953012 -0.0847592 -0.151886 -0.697659 -0.885375 -0.0429304 -0.562423 0.786349 0.696108 -0.31987 0.214865 0.0461925 -0.0373278 0.113692 -0.550812 0.276007 0.260772 0.114984 0.457713 0.571431 0.393958 -0.182555 0.0488552 0.481345 -0.0121614 -0.137841 0.0804707
internal_count=31345 30222 30054 29879 29027 23207 10072 9561 13135 1335 108 175 53 371 5820 4434 2455 1093 1386 1362 1071 1122 857 624 511 374 319 11800 4966 6834
shrinkage=0.1


Tree=26
num_leaves=31
num_cat=0
split_feature=2 2 0 1 0 2 1 1 1 2 1 0 0 0 1 1 2 1 2 2 1 2 1 1 0 0 1 2 1 0
split_gain=75.5707 15.357 11.9202 12.346 46.5208 11.6565 23.2283 13.5222 11.5634 17.0936 20.986 12.1196 12.8283 10.4505 11.5142 10.2818 16.779 10.0929 46.8537 15.2 11.9852 9.92551 10.1228 11.7259 9.80919 9.98248 9.72695 12.552 9.0167 8.88645
threshold=218.50000000000003 307.50000000000006 1390.8000000000004 17.125000000000004 1158.2500000000002 263.50000000000006 15.445000000000002 15.035000000000002 15.395000000000001 290.50000000000006 15.725000000000003 1232.0500000000002 1324.5500000000002 1126.1500000000003 17.325000000000003 15.075000000000001 270.50000000000006 15.705000000000002 277.50000000000006 278.50000000000006 15.645000000000001 277.50000000000006 15.625000000000002 15.345000000000001 1256.6500000000003 1200.9500000000003 17.035000000000004 291.50000000000006 16.025000000000002 1277.4500000000003
decision_type=2 2 2 2 2 2 2 2 2 2 2 2 2 2 2 2 2 2 2 2 2 2 2 2 2 2 2 2 2 2
left_child=-1 2 3 4 26 6 7 -6 11 17 -11 -7 -13 -5 -15 -14 -17 18 24 28 -20 -4 23 -23 25 -10 27 -2 -19 -30
right_child=1 -3 21 13 5 8 -8 -9 9 10 -12 12 15 14 -16 16 -18 19 20 -21 -22 22 -24 -25 -26 -27 -28 -29 29 -31
leaf_value=0.10576982367381854 -0.098969661212697985 0.10908588793575696 0.0024406942329935118 0.0064321551006779375 -0.088297673207045499 -0.066481911173432412 -0.10414760045019303 0.11487523349580411 0.016887930330946543 -0.10330148068134921 0.10304852494237481 0.022947651382321466 0.0024947024228747453 -0.00052065376749577369 -0.1013866891877522 0.068519483201833528 -0.080680608258552389 -0.095877076008542783 -0.066431625667697156 0.01414429706243848 0.0395437034241371 0.073298205780898809 0.13671415372645687 -0.052022591546392917 0.054389488377679533 0.18142935247684511 -0.022771380140839376 0.018764594976288417 -0.074900641747346994 -0.00013132547215260275
leaf_count=1126 9196 168 1281 3906 109 2367 1555 52 210 210 297 798 386 757 1483 49 815 524 741 1411 192 152 112 118 321 108 443 371 914 1173
internal_value=0 -0.0678361 -0.0772152 -0.110239 -0.189023 -0.0760744 -0.558201 0.476301 -0.0378295 0.0752374 0.711643 -0.21244 -0.0960608 0.0158895 -0.435822 -0.311282 -0.588713 -0.000316082 0.213415 -0.148919 -0.425138 0.18029 0.579907 0.292317 0.77641 1.3855 -0.727603 -0.874373 -0.428188 -0.250333
internal_count=31345 30219 30051 28388 22242 12232 1716 161 10516 6101 507 4415 2048 6146 2240 1250 864 5594 1572 4022 933 1663 382 270 639 318 10010 9567 2611 2087
shrinkage=0.1


Tree=27
num_leaves=31
num_cat=0
split_feature=2 2 0 2 1 1 0 1 2 2 1 1 1 2 0 0 2 1 1 2 0 1 2 0 2 1 2 1 0 0
split_gain=67.5934 13.6583 10.9624 10.1912 9.79344 8.80611 42.7446 13.897 12.0703 10.2156 23.2474 9.38458 8.31344 8.02606 7.97537 7.63125 7.18664 7.58366 6.99422 42.7954 23.0999 22.3579 18.6578 14.4308 15.2203 14.5461 12.1452 9.15567 8.989 12.918
threshold=183.00000000000003 307.50000000000006 1440.0000000000002 244.50000000000003 15.055000000000001 17.135000000000002 1158.2500000000002 17.035000000000004 291.50000000000006 261.50000000000006 15.365 15.035000000000002 14.565000000000003 261.50000000000006 919.35000000000002 1127.9000000000003 271.50000000000006 17.085000000000004 17.315000000000001 255.50000000000003 1079.7 17.415000000000003 249.50000000000003 954.35000000000002 252.50000000000003 17.815000000000001 291.50000000000006 17.265000000000004 1180.2500000000002 1099.3000000000004
decision_type=2 2 2 2 2 2 2 2 2 2 2 2 2 2 2 2 2 2 2 2 2 2 2 2 2 2 2 2 2 2
left_child=-1 2 3 -2 12 6 7 8 -5 10 11 -8 -4 -9 16 -10 17 -15 22 20 23 -22 -7 25 -25 -20 27 28 29 -24
right_child=1 -3 4 5 -6 18 9 13 15 -11 -12 -13 -14 14 -16 -17 -18 -19 19 -21 21 -23 26 24 -26 -27 -28 -29 -30 -31
leaf_value=0.10557909180327503 -0.086689112295710177 0.10817324047859496 0.10554462128173009 -0.098643055573502059 0.11458854246097626 -0.06917719278168219 -0.1043699568893226 -0.11018726311564304 -0.067439930070500129 -0.0011489877206899036 -0.10413571232046617 0.1250684633977299 -0.12136190491678955 0.32192678219154758 -0.022297329441905978 0.10573010122107887 -0.05269717404268276 0.072979213717699762 -0.02026390286261651 -0.09665915992439178 0.045483121355884948 -0.096803960140164499 0.018273649710974432 0.022304359461763044 0.093305604092638716 0.13039954936226375 -0.075749826032995488 0.11016434993930711 -0.087619714911984448 0.11266201698856755
leaf_count=1123 852 168 24 9190 122 264 67 137 248 11800 1227 41 29 22 300 123 31 21 515 1979 319 774 285 609 199 39 265 233 182 157
internal_value=0 -0.0627937 -0.0713815 -0.0823 0.656569 -0.0727411 -0.131495 -0.652341 -0.86156 -0.038194 -0.55101 0.733025 -0.325428 -0.155265 0.0589344 0.166274 0.935372 1.56095 0.0389021 -0.0362719 0.10027 -0.513163 0.239896 0.22845 0.41649 -0.0873613 0.398829 0.496405 0.344011 0.436911
internal_count=31345 30222 30054 29879 175 29027 23207 10072 9561 13135 1335 108 53 511 374 371 74 43 5820 4434 2455 1093 1386 1362 808 554 1122 857 624 442
shrinkage=0.1


Tree=28
num_leaves=31
num_cat=0
split_feature=2 2 2 0 1 0 1 1 1 2 0 0 1 2 0 2 1 2 0 1 1 2 0 0 1 2 2 2 0 1
split_gain=60.5761 12.1686 10.2294 9.2213 7.32026 44.7976 10.7722 18.957 14.092 9.78815 9.77223 11.1807 9.31832 27.8539 18.5086 8.95711 8.49769 8.43555 7.30765 7.5074 7.08805 11.5001 6.9835 8.3725 6.91222 6.70909 17.3715 7.8945 6.56561 7.80559
threshold=218.50000000000003 307.50000000000006 244.50000000000003 1453.2000000000003 17.115000000000006 1158.2500000000002 16.325000000000003 16.775000000000002 16.855000000000004 277.50000000000006 1266.4500000000003 1334.1000000000001 16.085000000000004 266.50000000000006 1322.1500000000003 283.50000000000006 16.815000000000001 289.50000000000006 1423.5000000000002 17.365000000000006 17.035000000000004 291.50000000000006 1187.3500000000001 1195.6500000000003 14.415000000000001 271.50000000000006 280.50000000000006 289.50000000000006 1200.9500000000003 15.555000000000001
decision_type=2 2 2 2 2 2 2 2 2 2 2 2 2 2 2 2 2 2 2 2 2 2 2 2 2 2 2 2 2 2
left_child=-1 2 -2 4 5 20 12 17 10 -10 -9 16 24 -14 15 -15 -12 -8 -6 -20 21 -4 -11 -24 -7 -16 -27 -28 29 -26
right_child=1 -3 3 -5 18 6 7 8 9 22 11 -13 13 14 25 -17 -18 -19 19 -21 -22 -23 23 -25 28 26 27 -29 -30 -31
leaf_value=0.10448092066478608 -0.089974613302883547 0.10735697009962115 -0.0983056433378518 0.11090165169766422 0.0025194361510231566 0.11733650526964241 -0.094130436949144608 -0.10308951928316963 -0.087703039322189744 -0.1056844586763043 0.4928554288887248 0.063616933091134836 -0.089341235130462507 -0.031376531577735477 0.24505136220512971 0.093775390395024583 0.15046730517177412 0.12635109307499906 0.22329728270685523 -0.10374286906648547 -0.020057343326023401 0.01461685692634229 0.22530385350115931 0.017019004680922527 -0.07381429864105081 0.0050328485213780296 0.31128248024354699 0.12667030733660542 -0.00044862376391898156 0.012078140585530413
leaf_count=1126 849 168 9190 80 5983 48 1950 137 650 99 22 132 411 369 74 94 26 20 20 27 362 371 45 135 1923 115 22 64 6070 763
internal_value=0 -0.0583643 -0.0662266 -0.0571887 -0.0630749 -0.118225 -0.0319915 -0.350521 0.0603345 -0.336634 0.757994 1.05403 0.0129759 0.38752 0.747879 0.14763 2.74401 -0.846461 0.0362338 1.42332 -0.722745 -0.849275 0.221888 0.564339 -0.0247752 1.40263 1.11838 2.03634 -0.0344115 -0.403828
internal_count=31345 30219 30051 29202 29122 23092 13169 3216 1246 929 317 180 9953 1149 738 463 48 1970 6030 47 9923 9561 279 180 8804 275 201 86 8756 2686
shrinkage=0.1


Tree=29
num_leaves=31
num_cat=0
split_feature=2 2 2 0 1 0 2 1 1 1 0 2 1 1 1 1 1 1 0 0 1 1 1 0 0 1 1 1 1 2
split_gain=54.2704 10.8433 8.39223 8.01513 6.16006 38.5475 9.35066 24.668 13.5776 9.55561 10.766 11.5235 9.03015 7.68217 9.61133 7.29074 10.6458 12.3971 8.97364 8.55983 6.71701 6.57042 19.2963 10.2444 6.41973 5.83387 11.6666 22.9877 16.3808 16.414
threshold=183.00000000000003 307.50000000000006 244.50000000000003 1453.2000000000003 17.125000000000004 1112.9000000000003 262.50000000000006 15.445000000000002 15.035000000000002 17.085000000000004 1216.7500000000002 285.50000000000006 14.635000000000003 15.745000000000003 16.585000000000004 15.165000000000001 14.785000000000002 14.845000000000001 1140.0500000000002 1126.1500000000003 17.035000000000004 15.445000000000002 15.725000000000003 1162.4500000000003 1000.35 16.905000000000005 16.775000000000002 16.345000000000002 16.085000000000004 280.50000000000006
decision_type=2 2 2 2 2 2 2 2 2 2 2 2 2 2 2 2 2 2 2 2 2 2 2 2 2 2 2 2 2 2
left_child=-1 2 -2 4 5 20 7 8 -7 10 11 21 -12 15 -15 16 -13 -18 19 -19 -4 -8 23 -23 -22 26 27 28 -14 -30
right_child=1 -3 3 -5 -6 6 9 -9 -10 -11 12 13 25 14 -16 -17 17 18 -20 -21 24 22 -24 -25 -26 -27 -28 -29 29 -31
leaf_value=0.10452204566109445 -0.083219203601460456 0.10662595843153731 -0.097234345689740681 0.10722205136091989 0.0034051900971635279 -0.10605774020088743 -0.091045154138827869 -0.10427841922015427 0.11551467709798785 0.12008175037215374 0.082461024046695086 -0.090665354371349927 -0.0014832386126188589 0.08769379700770602 -0.10334368474255957 -0.1025067889768079 0.45383437621862072 0.032462738197962165 -0.025386931360015685 0.55299867362766031 0.0089388179978660883 -0.10111051783304358 -0.072226260144903534 0.11155217279589309 -0.095440013408147145 -0.06779173123186448 0.071444170713696326 -0.094297177378229194 0.015956223937524903 0.14211632318721393
leaf_count=1123 852 168 7023 80 5923 96 2613 1554 66 88 101 108 4903 230 140 504 29 20 172 23 200 342 2193 445 148 267 259 1060 473 142
internal_value=0 -0.0537109 -0.0608705 -0.0527731 -0.0581311 -0.108625 -0.0411078 -0.498213 0.572327 -0.014765 -0.0254714 -0.30744 0.026989 0.136801 0.573592 -0.318455 0.226989 1.10663 0.505675 2.81523 -0.776335 -0.534644 -0.303187 0.68181 -0.339906 0.00853972 0.0227093 -0.00599142 0.0374903 0.618104
internal_count=31345 30222 30054 29202 29122 23199 15828 1716 162 14112 14024 6819 7205 1226 370 856 352 244 215 43 7371 5593 2980 787 348 7104 6837 6578 5518 615
shrinkage=0.1


Tree=30
num_leaves=31
num_cat=0
split_feature=2 2 2 0 1 0 2 1 1 2 1 1 1 0 0 2 1 2 1 1 2 2 2 1 0 2 2 1 1 1
split_gain=48.6978 9.77823 8.25934 7.42498 8.6571 24.0949 14.3494 44.2568 31.2757 10.7305 9.74944 9.20511 9.33223 9.12373 9.06775 8.28926 10.4611 12.0622 14.8753 8.69705 7.91511 6.96744 21.6001 16.271 12.0434 6.95456 6.83623 30.2529 14.1678 9.46025
threshold=218.50000000000003 306.50000000000006 244.50000000000003 1388.9500000000003 15.465000000000002 1224.3500000000001 270.50000000000006 15.115 15.105000000000002 294.50000000000006 15.295000000000002 14.785000000000002 15.175000000000002 1295.0500000000002 1324.5500000000002 277.50000000000006 15.625000000000002 286.50000000000006 15.035000000000002 15.495000000000003 286.50000000000006 281.50000000000006 275.50000000000006 14.885000000000003 1247.5500000000002 301.50000000000006 290.50000000000006 16.655000000000005 15.725000000000003 17.045000000000005
decision_type=2 2 2 2 2 2 2 2 2 2 2 2 2 2 2 2 2 2 2 2 2 2 2 2 2 2 2 2 2 2
left_child=-1 2 -2 4 5 9 7 -7 21 -4 13 -11 -13 -9 20 -5 17 19 -19 -17 -10 22 23 -8 -24 -23 29 28 -28 -6
right_child=1 -3 3 15 26 6 8 10 14 11 -12 12 -14 -15 -16 16 -18 18 -20 -21 -22 25 24 -25 -26 -27 27 -29 -30 -31
leaf_value=0.10339252190694358 -0.087039633928130022 0.092490170962941778 -0.09021535210316689 0.0008236061699057177 -0.017982632396403547 -0.083961485286461648 0.18524455993357403 -0.061161969112455389 0.013370223120282293 -0.10796260722774492 0.15151835211994563 0.14791819395763237 -0.10382119196119557 0.10298558670839353 -0.086357113094302773 0.11429001949912257 0.13178406747259258 0.094889869331468923 -0.11252016633137148 -0.050737594760167183 -0.08000121098031529 -0.0033901858013268304 0.015517575403718165 -0.077042872580489363 0.29053011474953672 0.10876770872499796 -0.10305022515673333 -0.074887354672768899 0.11579517285916137 0.0040252428714742097
leaf_count=1126 849 189 6282 1330 11445 299 23 32 256 77 106 122 71 45 901 93 120 39 127 32 326 367 21 105 31 35 137 657 243 5859
internal_value=0 -0.0499644 -0.0574751 -0.0498086 -0.0778956 -0.226056 -0.0640238 0.386423 -0.207159 -0.732184 1.05904 0.153879 0.804624 0.442287 -0.599449 0.151548 0.511446 0.228016 -0.42364 0.774568 -0.227244 0.264896 0.778972 -0.0595983 2.09202 0.0880814 -0.0271817 0.341134 0.924226 -0.0488054
internal_count=31345 30219 30030 29181 27440 9099 2547 482 2065 6552 183 270 193 77 1483 1741 411 291 166 125 582 582 180 128 52 402 18341 1037 380 17304
shrinkage=0.1


Tree=31
num_leaves=31
num_cat=0
split_feature=2 2 2 1 1 0 1 1 1 0 2 0 1 2 1 0 2 1 0 0 0 2 1 2 2 2 1 0 2 1
split_gain=43.7171 8.76615 6.82647 7.51049 23.5285 6.53964 8.8563 6.18884 5.44232 32.5193 29.0047 15.1909 14.793 32.9581 10.1498 28.9989 11.5234 13.832 9.96323 9.84716 9.78779 8.82253 12.2351 27.8588 18.5756 8.77053 18.311 8.47843 7.89778 7.88654
threshold=183.00000000000003 307.50000000000006 245.50000000000003 17.475000000000005 17.425000000000004 1440.0000000000002 15.055000000000001 14.565000000000003 17.515000000000004 1089.1000000000001 257.50000000000006 928.25000000000011 17.425000000000004 248.50000000000003 17.135000000000002 1108.2 247.50000000000003 17.375000000000004 1089.1000000000001 919.35000000000002 902.25000000000011 252.50000000000003 17.625000000000004 249.50000000000003 248.50000000000003 261.50000000000006 15.365 1039.0500000000002 291.50000000000006 16.905000000000005
decision_type=2 2 2 2 2 2 2 2 2 2 2 2 2 2 2 2 2 2 2 2 2 2 2 2 2 2 2 2 2 2
left_child=-1 2 3 4 -2 8 7 -7 12 10 11 20 14 18 15 19 17 -16 27 29 -10 22 24 -24 -13 26 -17 -14 -18 -4
right_child=1 -3 5 -5 -6 6 -8 -9 9 -11 -12 21 13 -15 16 25 28 -19 -20 -21 -22 -23 23 -25 -26 -27 -28 -29 -30 -31
leaf_value=0.10367315638269868 -0.095461982019755379 0.10545389108113908 -0.10065160204576087 -0.10793411216473162 0.18074187597726604 0.091036896129251699 0.10746633713178505 -0.11924678703991616 0.03554606381773362 -0.11054637190291956 -0.10241739549748748 0.15941738921921464 0.0035942577778812126 -0.13031881263245626 -0.13483425817531414 0.06786951282529452 0.029580951990844706 0.044836662735427316 -0.12985598817809366 -0.085511447191812584 -0.066474281664762561 0.087653740631000288 -0.11387897364915563 0.051170789718739555 0.0050032838862415982 -0.001383786063368984 -0.10347913876365211 0.12888754014258913 -0.072751158860430445 0.054459110699974091
leaf_count=1123 667 168 753 397 57 24 122 29 106 787 749 75 86 595 124 108 1871 67 71 6334 122 231 165 157 71 14369 1421 34 295 167
internal_value=0 -0.0460027 -0.0520526 -0.546921 -0.0300934 -0.0415176 0.563584 -0.420146 -0.0499471 0.101122 0.235455 0.363002 -0.0784374 -0.561884 -0.0496748 -0.0969815 0.164001 -0.603688 0.182343 -0.679812 -0.192802 0.529725 0.327998 0.0142027 0.817031 -0.0364594 -0.557037 0.408026 0.246472 0.0465158
internal_count=31345 30222 30054 1121 724 28933 175 53 28758 2463 1676 927 26295 786 25509 23152 2357 191 191 7254 228 699 468 322 146 15898 1529 120 2166 920
shrinkage=0.1


Tree=32
num_leaves=31
num_cat=0
split_feature=2 2 2 0 2 1 0 1 1 2 1 0 1 2 2 1 2 1 1 0 1 0 1 2 0 0 1 2 0 0
split_gain=39.2734 7.84454 6.64094 6.2457 10.2057 7.17072 30.0546 8.1139 8.67697 14.9961 7.92585 11.0251 10.3271 6.91479 7.17605 17.1423 13.7488 13.1801 11.904 9.70561 22.7188 10.6941 10.4267 11.3721 6.46737 8.36309 8.00445 6.25218 6.17358 6.10251
threshold=218.50000000000003 307.50000000000006 244.50000000000003 1378.3500000000001 297.50000000000006 17.065000000000001 1131.5000000000002 16.405000000000005 16.085000000000004 282.50000000000006 16.755000000000006 1266.4500000000003 16.905000000000005 287.50000000000006 268.50000000000006 17.315000000000001 258.50000000000006 17.825000000000003 17.205000000000002 1082.0500000000002 17.415000000000003 979.1500000000002 17.505000000000006 246.50000000000003 1199.6500000000003 1322.1500000000003 16.005000000000006 269.50000000000006 1322.1500000000003 1334.1000000000001
decision_type=2 2 2 2 2 2 2 2 2 2 2 2 2 2 2 2 2 2 2 2 2 2 2 2 2 2 2 2 2 2
left_child=-1 2 -2 5 -5 6 -4 8 24 28 -9 -12 27 14 16 -16 17 19 -18 21 -21 -7 -23 -24 -8 26 -26 -13 -10 -29
right_child=1 -3 3 4 -6 13 7 10 9 -11 11 12 -14 -15 15 -17 18 -19 -20 20 -22 22 23 -25 25 -27 -28 29 -30 -31
leaf_value=0.10248152129598467 -0.084064577484565153 0.1049182687301977 -0.085393796324481422 0.0078546489790689965 0.14372185800030735 -0.0093768853989635824 -0.042098506620902511 -0.091574108906934737 -0.041105480968338493 0.10636686422748159 -0.093118801976287899 -0.10172258866123703 -0.079318417488251233 -0.06956306569085384 0.055956468234515604 -0.10184755436023535 -0.0053493456035419483 0.096510531111780443 -0.094548958098246191 0.019495123336824731 -0.099080876597284623 -0.0010541304588405195 -0.088667399063840913 0.065873346611208625 0.014487352007102536 -0.019225154216433414 -0.092471848906191256 0.19144512742996889 0.040797930017581842 0.044606911990421466
leaf_count=1126 849 168 8046 2443 78 812 3772 1450 784 285 670 122 209 497 398 458 250 107 1150 806 857 301 85 348 2720 2022 96 36 338 62
internal_value=0 -0.0428712 -0.0484036 -0.0419149 0.114999 -0.0729782 -0.14682 -0.0747642 -0.0348971 0.335959 -0.454962 -0.116392 0.34564 0.0178098 0.0380119 0.356558 -0.0102734 0.0669904 -0.449497 0.0243956 -0.319125 0.11029 0.309452 0.554141 -0.0831879 -0.0385263 0.105159 0.830865 -0.0332077 1.08902
internal_count=31345 30219 30051 29202 2521 26681 20612 12566 10017 1407 2549 1099 429 6069 5572 856 4716 3316 1400 3209 1663 1546 734 433 8610 4838 2816 220 1122 98
shrinkage=0.1


Tree=33
num_leaves=31
num_cat=0
split_feature=2 2 1 0 2 1 2 1 1 0 2 0 0 0 2 1 2 1 1 2 1 1 1 0 2 0 1 2 2 1
split_gain=35.3134 7.51603 8.8514 14.408 14.8369 23.7505 8.63898 23.0356 18.3462 7.90592 7.47608 9.18844 6.99521 5.72237 5.91454 19.4676 5.44817 7.09692 18.9235 5.53444 46.6818 30.0028 28.1992 26.0735 15.8855 22.6571 15.5484 13.1946 12.4789 11.333
threshold=183.00000000000003 294.50000000000006 15.185 1253.7500000000002 274.50000000000006 14.985000000000001 266.50000000000006 15.035000000000002 14.785000000000002 1440.0000000000002 285.50000000000006 1405.5500000000002 1099.3000000000004 1378.3500000000001 295.50000000000006 14.975000000000003 245.50000000000003 17.475000000000005 17.425000000000004 273.50000000000006 15.575000000000001 15.575000000000001 16.755000000000006 1082.0500000000002 286.50000000000006 1405.5500000000002 15.295000000000002 264.50000000000006 290.50000000000006 17.085000000000004
decision_type=2 2 2 2 2 2 2 2 2 2 2 2 2 2 2 2 2 2 2 2 2 2 2 2 2 2 2 2 2 2
left_child=-1 2 3 -2 6 10 7 -5 -8 16 11 -6 -3 14 15 -14 17 18 -4 20 26 24 -22 -23 25 -21 27 -18 29 -25
right_child=1 12 9 4 5 -7 8 -9 -10 -11 -12 -13 13 -15 -16 -17 19 -19 -20 21 22 23 -24 28 -26 -27 -28 -29 -30 -31
leaf_value=0.10298886838679358 -0.079375801602986434 -0.10274345452331091 -0.093912808716604249 -0.068198960983359716 0.22148712901836581 -0.041332049476162362 0.10256712099886767 0.12594216105632633 -0.10031479962123138 0.096718015357903558 0.0043749068759761679 0.05586747389669159 0.37120396842469572 0.096702755223088091 0.012148518908814628 -0.016335279943661692 0.13032599828914834 -0.10708838169060515 0.1554446427673413 -0.043042798483854595 -0.059970771652198634 -0.074241790554252868 0.0022475484791416563 0.0041101627251704494 -0.10304607694557869 0.12491313021931466 0.092275599779632567 -0.05206295054566943 0.091186834827206881 0.078077980130545496
leaf_count=1123 4080 203 667 192 46 216 42 56 360 80 36 33 21 182 983 96 30 397 57 2772 4220 2227 6104 4091 1286 48 665 407 266 359
internal_value=0 -0.0394322 -0.0614334 -0.299045 -0.0886987 0.425618 -0.38564 0.0528146 -0.705547 -0.0299973 1.22176 1.5696 0.226854 0.283817 0.194384 1.1741 -0.0375731 -0.503213 0.00635858 -0.026308 0.0332927 -0.117875 -0.0814473 0.0811514 -0.494903 -0.280184 0.695614 -0.0590712 0.202131 0.125073
internal_count=31345 30222 28737 5061 981 331 650 248 402 23676 115 79 1485 1282 1100 117 23596 1121 724 22475 11426 11049 10324 6943 4106 2820 1102 437 4716 4450
shrinkage=0.1


Tree=34
num_leaves=31
num_cat=0
split_feature=2 2 1 2 1 1 0 1 0 2 1 2 1 2 2 2 2 1 1 1 2 2 1 0 0 1 1 0 0 0
split_gain=31.7668 6.7069 5.5559 4.55632 6.51633 15.3688 4.3686 3.83232 16.6007 12.0068 10.0852 7.27817 23.9507 17.799 21.3395 19.8232 10.1895 24.3206 6.50008 5.83109 9.90582 5.97661 10.0506 5.60749 11.0774 11.2877 5.26618 6.52776 5.2334 6.80175
threshold=183.00000000000003 307.50000000000006 14.415000000000001 245.50000000000003 17.475000000000005 17.425000000000004 1453.2000000000003 15.335000000000003 1244.5500000000002 292.50000000000006 14.785000000000002 265.50000000000006 15.035000000000002 274.50000000000006 286.50000000000006 293.50000000000006 276.50000000000006 15.025 15.165000000000001 14.785000000000002 267.50000000000006 268.50000000000006 15.115 1342.8500000000001 1288.2500000000002 15.255000000000001 14.885000000000003 1411.1000000000001 1319.5500000000002 1379.7500000000002
decision_type=2 2 2 2 2 2 2 2 2 2 2 2 2 2 2 2 2 2 2 2 2 2 2 2 2 2 2 2 2 2
left_child=-1 2 -2 4 5 -4 7 8 9 -5 -11 12 -10 19 16 -16 17 -15 -12 20 -13 22 -21 24 -18 -26 -25 -28 -17 -30
right_child=1 -3 3 6 -6 -7 -8 -9 11 10 18 13 -14 14 15 28 23 -19 -20 21 -22 -23 -24 26 25 -27 27 -29 29 -31
leaf_value=0.1026963763160736 0.10509190034299261 0.10434212044740324 -0.092370577609243387 -0.084032409584528067 -0.10644642333058348 0.13269551821310757 0.096665552430243606 -0.0010682581672838555 -0.06545041062199175 -0.096286369550821746 0.11024420489143745 -0.11396248855609854 0.11644322265529519 0.19345438579231261 -0.096645894609106942 0.057356391899014918 0.034709502044801069 -0.076567107231564124 -0.1033417843742875 -0.11384145328825937 0.13364263346657515 -0.090401604653350343 0.037339691638244875 0.15970993828149138 0.38011435098160157 0.081085024905867414 0.0049013306735272268 0.1557262277238039 -0.024784194223237736 0.091007111921698303
leaf_count=1123 67 168 667 5497 397 57 68 20748 168 98 166 32 102 26 492 143 40 126 86 92 27 396 51 30 33 29 105 20 257 34
internal_value=0 -0.0367849 -0.0416969 -0.0457381 -0.485824 0.00184989 -0.0374797 -0.0410151 -0.144048 -0.593489 0.172813 -0.0116106 0.443145 -0.0859055 0.126141 -0.181352 0.676241 0.0345684 0.747021 -0.53922 0.338055 -0.651855 -0.198646 1.0273 1.68845 2.61468 0.737216 0.435848 0.130663 -0.0733858
internal_count=31345 30222 30054 29987 1121 724 28866 28798 8050 5847 350 2203 270 1933 1335 926 409 152 252 598 59 539 143 257 102 62 155 125 434 291
shrinkage=0.1


Tree=35
num_leaves=31
num_cat=0
split_feature=2 2 1 2 0 1 0 2 1 2 1 2 2 2 1 2 0 1 0 1 2 2 1 1 0 0 1 2 1 0
split_gain=28.6986 6.01358 4.74953 4.69088 3.79002 3.17379 14.4153 10.952 8.19394 6.18082 20.1623 15.1544 17.122 17.5919 8.12188 14.6635 6.51168 8.39397 5.83795 5.02425 8.11779 5.4458 8.87072 4.97444 4.85537 4.53117 5.39643 5.6578 10.6771 8.68805
threshold=218.50000000000003 307.50000000000006 14.415000000000001 244.50000000000003 1453.2000000000003 15.335000000000003 1244.5500000000002 292.50000000000006 14.785000000000002 265.50000000000006 15.035000000000002 274.50000000000006 286.50000000000006 293.50000000000006 14.975000000000003 276.50000000000006 1342.8500000000001 15.255000000000001 1411.1000000000001 14.785000000000002 267.50000000000006 268.50000000000006 15.115 15.165000000000001 1295.0500000000002 1273.9000000000003 14.825000000000001 296.50000000000006 15.055000000000001 1378.3500000000001
decision_type=2 2 2 2 2 2 2 2 2 2 2 2 2 2 2 2 2 2 2 2 2 2 2 2 2 2 2 2 2 2
left_child=-1 2 -2 -4 5 6 7 -5 -9 10 -8 19 14 -14 -13 -16 17 24 -18 20 -11 22 -21 -10 -17 -15 -27 28 -28 -29
right_child=1 -3 3 4 -6 -7 9 8 23 11 -12 12 13 25 15 16 18 -19 -20 21 -22 -23 -24 -25 -26 26 27 29 -30 -31
leaf_value=0.1016071134607119 0.099727677932760272 0.1039191397099464 -0.079330340602987853 -0.082274995290721228 0.092622464763249493 -0.001360677860314211 -0.061752773836600765 -0.093698035986840456 0.090328624210278818 -0.11258715124360943 0.10852180164170003 0.12562013530305155 -0.094672600919408614 0.099092324679348462 -0.054900584453478209 0.12540795338441624 -0.0047940092118611277 0.024704384939880975 0.14452367251176515 -0.11250070414989453 0.11627276614456146 -0.087452768400312866 0.033469375588355235 -0.10302176733558638 0.32915721043904633 -0.10438314186826976 0.1695924948144758 -0.015604086800980535 -0.12166344287246629 0.14681821868141257
leaf_count=1126 67 168 849 5497 68 21017 168 98 166 32 102 72 492 40 134 26 94 38 20 92 27 396 51 86 25 24 26 285 36 23
internal_value=0 -0.0342328 -0.0387087 -0.0423868 -0.0373573 -0.0405453 -0.136354 -0.568345 0.148478 -0.0127059 0.414742 -0.0816217 0.112795 -0.168269 0.601886 0.328811 0.849671 1.57271 0.402231 -0.51302 0.305469 -0.622376 -0.186215 0.628343 2.39564 0.117429 0.0277792 0.123742 0.973037 -0.0145729
internal_count=31345 30219 30051 29984 29135 29067 8050 5847 350 2203 270 1933 1335 926 409 337 203 89 114 598 59 539 143 252 51 434 394 370 62 308
shrinkage=0.1


Tree=36
num_leaves=31
num_cat=0
split_feature=2 2 1 2 1 1 0 0 1 2 0 1 2 1 1 0 2 1 1 0 0 0 0 1 2 1 2 1 2 0
split_gain=25.7291 5.54125 3.99554 3.86955 8.01227 12.2719 5.76622 7.88516 4.89548 26.5533 20.513 16.0245 42.2119 11.7464 9.1452 20.5676 9.62659 14.8048 10.5405 9.23734 9.20819 7.94034 8.98145 8.76203 7.37903 12.2582 7.30115 7.78706 7.85481 6.6317
threshold=183.00000000000003 306.50000000000006 14.415000000000001 246.50000000000003 17.535000000000004 17.415000000000003 1082.0500000000002 1036.9500000000003 17.535000000000004 257.50000000000006 1089.1000000000001 17.425000000000004 248.50000000000003 17.475000000000005 17.135000000000002 1108.2 262.50000000000006 15.365 15.035000000000002 919.35000000000002 1423.5000000000002 928.25000000000011 888.45000000000016 17.765000000000004 247.50000000000003 17.375000000000004 252.50000000000003 17.745000000000001 251.50000000000003 1089.1000000000001
decision_type=2 2 2 2 2 2 2 2 2 2 2 2 2 2 2 2 2 2 2 2 2 2 2 2 2 2 2 2 2 2
left_child=-1 2 -2 4 5 -4 7 -7 11 10 21 14 13 -13 15 19 17 18 -17 -5 24 22 -10 -24 25 -16 27 -23 -29 -15
right_child=1 -3 3 8 -6 6 -8 -9 9 -11 -12 12 -14 29 20 16 -18 -19 -20 -21 -22 26 23 -25 -26 -27 -28 28 -30 -31
leaf_value=0.10219812509215498 0.094231870329047521 0.086021665881250708 -0.091931584911122077 0.011063502567224949 -0.097360400119521989 0.019387832916529547 -0.11543592303170842 0.1680736578225642 0.08172762094071552 -0.10188526079784255 -0.10964413655477603 -0.052153605804135694 -0.12549547717018703 0.12649713868169951 -0.13584174296703869 -0.11564049648985958 0.00031918558261467475 -0.10089522030638712 0.10808808006305484 -0.080917250057642373 0.17931154718253217 0.043439262078503516 -0.072088274983971787 0.069044566432321458 0.020344721361655622 0.078435075569023974 0.080882670805348472 -0.11862922458687038 0.050736643114483428 -0.12884483170589148
leaf_count=1123 65 189 782 920 493 92 101 22 42 1088 317 53 714 54 92 88 14289 1481 58 6325 29 279 99 33 2151 33 229 60 21 23
internal_value=0 -0.0312745 -0.036281 -0.0395881 -0.319576 -0.0614333 0.358968 0.525823 -0.028356 0.127666 0.262407 -0.0548795 -0.576172 0.539918 -0.0244768 -0.0712582 -0.022279 -0.552404 0.439754 -0.611288 0.180142 0.360554 -0.0735871 -0.383177 0.14803 -0.615873 0.488055 0.282783 -0.476856 1.06509
internal_count=31345 30222 30033 29968 1490 997 215 114 28478 2168 1080 26310 844 130 25466 23161 15916 1627 146 7245 2305 763 174 132 2276 125 589 360 81 77
shrinkage=0.1


Tree=37
num_leaves=31
num_cat=0
split_feature=2 2 0 1 1 2 1 0 2 1 1 2 2 2 2 2 1 0 1 1 2 2 0 2 1 1 2 1 1 0
split_gain=23.2797 4.92674 3.7189 5.77934 4.32062 3.65423 2.58064 14.4481 12.4043 15.0393 13.3034 10.2089 8.63648 13.6455 16.616 10.6756 13.8801 14.1245 7.29582 5.85373 10.1393 5.68675 5.12026 5.01331 20.8377 17.7747 16.2619 40.3434 16.0923 17.4501
threshold=218.50000000000003 307.50000000000006 1440.0000000000002 15.055000000000001 14.565000000000003 243.50000000000003 15.375000000000002 1232.0500000000002 265.50000000000006 15.035000000000002 14.685 292.50000000000006 274.50000000000006 283.50000000000006 294.50000000000006 277.50000000000006 15.035000000000002 1313.8000000000004 14.785000000000002 15.305000000000001 268.50000000000006 286.50000000000006 1273.9000000000003 267.50000000000006 17.185000000000006 15.475000000000003 271.50000000000006 15.575000000000001 15.475000000000003 1013.6500000000002
decision_type=2 2 2 2 2 2 2 2 2 2 2 2 2 2 2 2 2 2 2 2 2 2 2 2 2 2 2 2 2 2
left_child=-1 2 5 4 -4 -2 7 11 9 -9 -10 -7 19 15 21 16 -14 -18 -13 -12 -21 -15 -11 24 25 -8 27 -25 -28 -30
right_child=1 -3 3 -5 -6 6 23 8 10 22 12 18 13 14 -16 -17 17 -19 -20 20 -22 -23 -24 26 -26 -27 28 -29 29 -31
leaf_value=0.1009596604157447 -0.1006863322157034 0.10325079713326742 0.081319959303805076 0.093782679733135255 -0.11423135450022029 -0.085993729849387468 0.099888152275900227 -0.049826454978388196 0.10973239448390555 0.012354018526618899 -0.063740119497987122 -0.093006402123514964 0.11701054344958726 0.0059221398524917888 0.00916116238184282 0.10485496210643615 0.11515681391406481 -0.10244646064059915 0.059867289167691101 0.11968115129694563 -0.060973068523137247 -0.10044402671304438 0.13764818699757811 0.17072492063814079 0.0021495101761273712 -0.064209635652405048 -0.061739179414004842 0.00084776068754453609 -0.07776037873223364 0.011181289388609926
leaf_count=1126 652 168 24 122 29 5706 48 150 76 22 571 98 36 94 437 127 43 153 254 23 60 669 82 154 4722 3758 1102 1458 1782 7599
internal_value=0 -0.0292779 -0.0330602 0.477067 -0.410891 -0.0390237 -0.035899 -0.119872 -0.0103687 0.617607 -0.0971359 -0.589944 -0.152819 -0.0107702 -0.22746 0.465868 0.0221565 -0.493656 0.123056 -0.470961 0.125243 -0.80082 1.10529 -0.0103836 -0.0845731 -0.51293 0.062768 0.521201 -0.0134959 0.0533249
internal_count=31345 30219 30051 175 53 29876 29224 8601 2543 254 2289 6058 2213 1559 1200 359 232 196 352 654 83 763 104 20623 8528 3806 12095 1612 10483 9381
shrinkage=0.1


Tree=38
num_leaves=31
num_cat=0
split_feature=2 2 2 1 1 1 0 0 1 2 0 1 2 1 1 0 2 1 1 1 2 0 0 0 1 2 1 2 2 2
split_gain=20.8944 4.45275 3.33646 7.44103 10.3396 4.8721 3.81558 5.03814 3.63888 23.2544 17.8248 14.1678 36.6272 9.4541 7.47799 21.3051 8.0219 11.2305 7.94687 7.75555 8.42502 7.23223 6.36234 7.30665 7.27059 6.74664 7.08379 19.8126 11.1988 6.27706
threshold=183.00000000000003 306.50000000000006 246.50000000000003 17.535000000000004 17.415000000000003 17.465000000000003 1099.3000000000004 991.75000000000011 17.535000000000004 257.50000000000006 1091.9000000000003 17.425000000000004 248.50000000000003 17.475000000000005 17.115000000000006 1152.7500000000002 262.50000000000006 15.445000000000002 15.035000000000002 17.035000000000004 295.50000000000006 1423.5000000000002 928.25000000000011 888.45000000000016 17.765000000000004 252.50000000000003 17.625000000000004 249.50000000000003 249.50000000000003 247.50000000000003
decision_type=2 2 2 2 2 2 2 2 2 2 2 2 2 2 2 2 2 2 2 2 2 2 2 2 2 2 2 2 2 2
left_child=-1 2 3 4 -2 6 7 -6 11 10 22 14 13 -13 15 19 17 18 -17 20 -4 29 23 -10 -25 26 28 -28 -24 -16
right_child=1 -3 8 -5 5 -7 -8 -9 9 -11 -12 12 -14 -15 21 16 -18 -19 -20 -21 -22 -23 25 24 -26 -27 27 -29 -30 -31
leaf_value=0.10179399392724596 -0.089679533926924959 0.082526453860107096 -0.095918521860900219 -0.096244289622707341 0.027761275194838717 -0.018514915293304641 -0.11597231306261845 0.16007979599992492 0.072820974051717877 -0.10170461241155027 -0.11654812909665378 -0.048000527753344763 -0.1210030519076169 0.095028827946258124 -0.058640334939322393 -0.11476583411416191 0.0013642638408937066 -0.10443773714059323 0.082315650331921647 -0.0039820057178244408 0.038232658391563722 0.15548458686498212 0.13545179359992271 -0.066484253958899744 0.063716005712188231 0.074960855909122409 -0.11550816035464549 0.038748307438602893 -0.0045428816949749313 0.017713480995262928
leaf_count=1123 782 189 9040 493 28 111 53 23 42 1088 309 53 714 77 131 98 12128 1212 67 353 130 31 52 99 33 232 107 159 47 2341
internal_value=0 -0.026989 -0.0312931 -0.297674 -0.0503478 0.319975 0.740319 0.90066 -0.0209228 0.115477 0.238123 -0.043871 -0.544385 0.483862 -0.0154255 -0.0611771 -0.00851308 -0.541523 0.282305 -0.604056 -0.812642 0.15816 0.322191 -0.0696651 -0.354932 0.436111 0.241217 0.0113963 0.693891 0.131796
internal_count=31345 30222 30033 1490 997 215 104 51 28543 2168 1080 26375 844 130 25531 23028 13505 1377 165 9523 9170 2503 771 174 132 597 365 266 99 2472
shrinkage=0.1


Tree=39
num_leaves=31
num_cat=0
split_feature=2 2 1 2 0 2 1 1 2 1 1 0 2 0 1 1 2 1 1 0 0 1 1 1 1 0 1 0 0 2
split_gain=18.9261 4.06074 3.20723 3.06618 2.75847 7.81356 4.66226 7.78031 5.09154 4.8764 4.42732 9.5594 9.64507 7.67294 5.427 5.08642 3.7625 3.72943 3.48656 6.75763 14.101 3.2972 3.19455 5.62008 3.04031 3.92894 2.86348 2.7704 4.04614 3.27528
threshold=218.50000000000003 307.50000000000006 14.415000000000001 243.50000000000003 1375.4500000000003 297.50000000000006 17.315000000000001 17.265000000000004 262.50000000000006 15.455000000000002 15.395000000000001 1229.4500000000003 292.50000000000006 1338.9500000000003 14.785000000000002 15.165000000000001 265.50000000000006 14.845000000000001 14.725000000000003 1200.9500000000003 1212.4500000000003 15.095000000000001 15.205000000000002 15.175000000000002 14.865 1141.9000000000003 15.095000000000001 1372.4500000000003 1360.6500000000003 296.50000000000006
decision_type=2 2 2 2 2 2 2 2 2 2 2 2 2 2 2 2 2 2 2 2 2 2 2 2 2 2 2 2 2 2
left_child=-1 2 -2 -4 10 6 7 8 9 21 11 12 17 -13 -14 24 -15 18 -5 -20 -21 -6 23 26 -16 -26 27 28 29 -18
right_child=1 -3 3 4 5 -7 -8 -9 -10 -11 -12 13 14 16 15 -17 22 -19 19 20 -22 -23 -24 -25 25 -27 -28 -29 -30 -31
leaf_value=0.10034036412660796 0.089639071448117891 0.10270629639225469 -0.10056697944111898 -0.10288162106820249 -0.089445807490662568 0.1336093890134554 -0.095139057698611584 0.11518721145160248 0.0072850545466922739 -0.10651526873000872 -0.0017489700743463445 0.01151589756680816 -0.089662300570511208 0.05806291479596664 0.173096218014129 -0.10271961585291337 0.010255026447128304 -0.10113969020524488 -0.10052042805311159 0.76234262592876367 0.046664025171471529 0.11831672377534677 -0.080629145601312166 0.13700371089400712 0.15101775095805314 -0.013395375605574803 -0.10996051633627904 -0.12310670630238428 0.02711895312996291 -0.092876234794961363
leaf_count=1126 67 168 652 273 20 73 257 48 1919 384 18561 1129 94 37 36 115 58 5101 350 24 45 25 364 39 35 83 84 23 103 52
internal_value=0 -0.0253795 -0.0285953 -0.0314941 -0.0288545 0.0758859 0.0460136 0.0690684 0.0328101 -0.630345 -0.0510007 -0.185587 -0.5704 -0.0586465 0.103247 0.470435 -0.358651 -0.865354 -0.108947 0.584811 1.94942 0.396828 -0.432859 -0.261861 0.784575 0.425105 -0.362224 -0.242095 -0.141321 -0.530133
internal_count=31345 30219 30051 29984 29332 2726 2653 2396 2348 429 26606 8045 6156 1889 363 269 760 5793 692 419 69 45 723 359 154 118 320 236 213 110
shrinkage=0.1


Tree=40
num_leaves=31
num_cat=0
split_feature=2 2 0 2 1 1 0 0 1 2 0 1 2 1 1 0 2 1 2 1 0 1 0 2 1 2 1 2 0 1
